//Numpy array shape [64]
//Min -0.035874560475
//Max 0.062801092863
//Number of zeros 0

#ifndef B9_H_
#define B9_H_

#ifndef __SYNTHESIS__
model_default_t b9[64];
#else
model_default_t b9[64] = {-0.0053302515, -0.0142340036, -0.0174031164, -0.0000829429, 0.0016498462, -0.0208321642, 0.0333702900, -0.0287615210, -0.0031750975, -0.0008140694, 0.0113886325, -0.0138781825, 0.0182604566, -0.0056100180, 0.0107272146, -0.0039178245, 0.0018972090, 0.0188992713, 0.0306333285, 0.0089020031, 0.0100210505, -0.0124247568, -0.0056701102, 0.0252534654, -0.0092483824, -0.0060786442, 0.0071689296, 0.0054883529, 0.0166161973, 0.0096781831, -0.0013053693, -0.0135186072, -0.0358745605, 0.0628010929, -0.0118779959, -0.0137256384, 0.0368752368, 0.0061802003, -0.0023881898, -0.0124943890, 0.0284759793, 0.0049238037, 0.0075325700, 0.0330103263, 0.0378648788, 0.0367101543, 0.0086079752, 0.0098341703, -0.0003129804, 0.0263576005, 0.0244062375, -0.0253095999, -0.0148671763, 0.0277666375, 0.0122243660, -0.0019891527, -0.0228870939, -0.0062307050, -0.0171936266, 0.0246269014, -0.0184763987, 0.0303194281, 0.0298120752, 0.0202710088};
#endif

#endif
