//Numpy array shape [64, 10]
//Min -0.453674912453
//Max 0.350676715374
//Number of zeros 0

#ifndef W11_H_
#define W11_H_

#ifndef __SYNTHESIS__
model_default_t w11[640];
#else
model_default_t w11[640] = {-0.0163087007, 0.0228826478, 0.2450207472, -0.0696017519, 0.1819656044, 0.2757105529, 0.0783242807, -0.3051662445, -0.2996338904, 0.0876947343, -0.2457682937, 0.0607519075, -0.1745243073, -0.2921555638, 0.1702156812, -0.2630399168, -0.0066680880, -0.0532919690, -0.2705814838, -0.1856171936, 0.0195129253, -0.0196365900, -0.0166633148, -0.0241959561, 0.2526507974, -0.0950870588, -0.1494496316, 0.1709554195, -0.1895004809, -0.1893976778, 0.0677705482, 0.2092187405, 0.1321120262, 0.1699640155, 0.2245458066, -0.2380299568, 0.0294125136, 0.0776202902, -0.3474604189, -0.4079333544, 0.1046111509, -0.0663557723, 0.0448001735, -0.1160182282, -0.0823898241, -0.3941610754, -0.2097484320, -0.2088428736, -0.2177095562, 0.3145033121, 0.0420856252, -0.1348049790, 0.2192964405, -0.0031482757, 0.1615089178, -0.0745779127, 0.0448113419, 0.2226420641, -0.2867788970, -0.2498791814, 0.0471670181, 0.3134637475, -0.1686921567, -0.0105046611, 0.0447930209, -0.4046731591, -0.1837414801, -0.2269001901, 0.2298777401, -0.1891959161, 0.0453236550, 0.0051473915, 0.2367615700, -0.1322253793, 0.0041939528, -0.2356559187, -0.1336277872, -0.2619925439, -0.1382063478, 0.0816199481, 0.1436092257, -0.0020721906, -0.0627684295, 0.0224329606, 0.1772605181, -0.3548407853, -0.1718605608, -0.2048373967, -0.3421995938, 0.1141396239, -0.0225836411, -0.2589569390, -0.2840709686, -0.1073877439, 0.0671455264, 0.1661356837, 0.2029771805, -0.1103119031, 0.0785909593, 0.3300759494, -0.0237527471, 0.1382706612, 0.0579488240, 0.1963856816, -0.1840964258, -0.1187576503, -0.3236027658, -0.2232554108, -0.1500705779, 0.2922538221, 0.1807149202, 0.2550277412, 0.2238703370, 0.1854760796, -0.0346705392, 0.0010261923, -0.1383854896, 0.1186994314, 0.2089622617, -0.1904900819, -0.0678050965, 0.0130612953, 0.1951282471, -0.2511986792, 0.2632440329, -0.0325584859, -0.0732036084, 0.1100181490, 0.2143922001, -0.2876727581, 0.1515888274, -0.3167090118, 0.1731448174, 0.2192762494, -0.3251547217, 0.0570172779, -0.2071322650, -0.0168901216, 0.3172127604, -0.0778292716, 0.1688901782, -0.0436791480, 0.2243036777, -0.0384116322, -0.3454388380, 0.2885252833, -0.1996943504, -0.0143744191, -0.1317632943, -0.2835101187, 0.1108512729, -0.3386838734, -0.1873071492, 0.0875228122, -0.0192160420, 0.1411903054, 0.2161787301, -0.3247516453, -0.2766859531, -0.0968824923, 0.0692591295, -0.1630789638, -0.0219654832, -0.2390487939, 0.2796279192, -0.1911097169, 0.2893481851, -0.3815442026, -0.0666393936, 0.0173201691, -0.1177012324, 0.2304437608, 0.1519776285, 0.2681438327, -0.1229748726, 0.2610915899, 0.0420911536, -0.3445248604, 0.0742542967, -0.1146400198, 0.2572101355, 0.1389863938, -0.0778775513, -0.0079551041, -0.1543153673, 0.1165830940, -0.3299954832, 0.2842824459, -0.2647659481, -0.1789616644, 0.1811430454, 0.0293293800, -0.1685931236, -0.4058162570, 0.2413243949, 0.0096977605, 0.3239212334, -0.2127979547, 0.0395627804, -0.0831132531, -0.0855148360, -0.0287286006, -0.0643227622, -0.3433887661, 0.3386368155, -0.1882642210, -0.0092348214, -0.2583890259, 0.2925355434, -0.0294076633, 0.2431131154, -0.1633368880, -0.1459705979, 0.0051377933, 0.1763915271, -0.2075359225, 0.0610906370, -0.1644547582, -0.0975041613, 0.0237061139, -0.0357025936, 0.2455001175, -0.1408105195, -0.2977170050, 0.1648060381, -0.1159101427, 0.1530279964, 0.0983048081, -0.0006464278, 0.0805378035, 0.1850043088, 0.1135164648, 0.1027662829, -0.2448357195, -0.2559845746, -0.1365543306, -0.2226222456, -0.1842515022, -0.3372804523, -0.3149252832, -0.1049109399, -0.1717449725, 0.2257880121, 0.2592731416, 0.1130532548, -0.2694477439, -0.2000288814, 0.0756705627, -0.3490795195, 0.2546539903, 0.2040803134, -0.1801945567, 0.2578107417, -0.1915216744, -0.1576851606, -0.0297240093, 0.1016775370, 0.0717761070, -0.2319770455, 0.2290958017, -0.3110086918, -0.2860057652, -0.0625666007, 0.0430154614, -0.3388098478, 0.3506767154, 0.0065653119, 0.1563480198, -0.2386093587, 0.2014071196, 0.2974150777, -0.2559908628, -0.1425453871, -0.1554672867, 0.0394847132, 0.1566416025, 0.0393781662, -0.2155309021, -0.0295640230, 0.2627079189, 0.1617630124, 0.0135084204, -0.2548407912, 0.2768678069, 0.2093178928, -0.1352093667, -0.3803769946, 0.2430635244, -0.1683719158, -0.0842761770, -0.2912866771, 0.2459967881, -0.4144673944, -0.1389262378, -0.0524204709, 0.3000894189, 0.1238020584, -0.2306699008, -0.1128261238, -0.2377381921, -0.1175717339, -0.1501838118, 0.0620876960, -0.1376642585, 0.1670485735, -0.0919265896, 0.0734735355, -0.3444911540, 0.2637645006, 0.0510814525, 0.0081654638, -0.1965328455, 0.1967190206, 0.1832955182, 0.2266822308, -0.2401637882, -0.2293141186, 0.2544038296, 0.0095293922, -0.0493036918, 0.2262482643, 0.0639392361, 0.0894330814, 0.0820218623, 0.1284057498, 0.1518257856, 0.0317597501, 0.1492893845, 0.1835773736, 0.1468281895, -0.0077306493, 0.2488316745, -0.1239388511, -0.2789515853, 0.1174439341, -0.4428563416, -0.3019520044, -0.1409680247, 0.0475902744, 0.2188621759, -0.1955372989, 0.1710313410, 0.1803169549, 0.0714578405, 0.1445620805, -0.0987518057, 0.0334560163, -0.2670351565, 0.1924913228, -0.0227293614, -0.2624201477, 0.2450784892, -0.2314322889, -0.3016653955, 0.2081871480, -0.2406202257, 0.1381207854, 0.0448169149, -0.2327447683, -0.1535646915, 0.0873285830, 0.0929058120, -0.0075197876, -0.2706395984, 0.0852320120, -0.4126472175, 0.0160921682, 0.3175213039, -0.1321562678, -0.3035385013, -0.2988889515, 0.1285255104, 0.0956893116, 0.2631609142, -0.0676357374, 0.2625978887, 0.1002691612, -0.0059920759, 0.2540270090, 0.0119696157, -0.1370750964, -0.2023754716, 0.2087793201, 0.1412382573, -0.2463737279, -0.1564166546, -0.2876438498, 0.2032949179, 0.2955012918, 0.2459803671, -0.0494112931, -0.1322360039, -0.2670116723, -0.1695038825, -0.2011843920, -0.1415975839, 0.1803437769, -0.1363781691, 0.2252487093, 0.0698304847, -0.0652684942, 0.3196947575, -0.0019400496, 0.1022532955, 0.1260261983, 0.0059867892, 0.2448384315, -0.2892003059, 0.1979164481, -0.2649785578, 0.1621689051, -0.0105589041, -0.0731066167, -0.1178063527, -0.2616797686, -0.2520065308, -0.0627472177, 0.2657278478, -0.2283363193, -0.1925198585, 0.2888674438, -0.3981713653, 0.1738885492, 0.0326439887, -0.2211403698, 0.2472693324, 0.1940543354, -0.1246915758, 0.1279396713, -0.1606216580, -0.0026259697, 0.3137753904, 0.0074321921, -0.2137639970, 0.0759387240, -0.2434026450, -0.3606354892, 0.2671118081, -0.1373626590, 0.2719764113, -0.0664630011, 0.1302011609, 0.0284449365, -0.0405977033, -0.2425628155, -0.2177042216, 0.2723407149, 0.1917479783, -0.0265652668, -0.3105084300, -0.2580541372, -0.0203817692, 0.0746336207, -0.2550154030, -0.2927677631, -0.0076492615, -0.3066614270, -0.0836907402, 0.2683186829, -0.1035862863, 0.1983484626, -0.3213607073, 0.2614973187, -0.1649898589, 0.1449977756, -0.0250078719, -0.0797876045, 0.1830986440, -0.1039546579, 0.0181469135, -0.2929204106, -0.1851464808, -0.2312816530, -0.1844843924, 0.0418520048, 0.1515623033, 0.0583540350, 0.3363206387, -0.2086148411, 0.1281596869, -0.0571037307, 0.0119013460, -0.1687621176, 0.0952654928, 0.1432804018, 0.2706656158, 0.2259007543, 0.2526426911, -0.0823098943, -0.1166636720, -0.2331888229, 0.0935341641, 0.0885557458, -0.1457685530, 0.2476078570, 0.3312484026, -0.2956878543, -0.2254058123, -0.1201939359, -0.1670546383, -0.3228728473, 0.1431823224, -0.3295398355, -0.2163665742, 0.3238573968, 0.2613705397, -0.2922126353, 0.2164532095, 0.0553330183, 0.1948988885, -0.1841979325, -0.1845375150, 0.1527117193, 0.1062167361, 0.3090164661, 0.1490760148, -0.2943939269, 0.0897630453, -0.0489557944, 0.1635391712, -0.0484410711, -0.1416071504, -0.1231018081, 0.2259775251, -0.0946257636, 0.0314495601, -0.2425503880, -0.0553151257, -0.2195153832, -0.1741563380, 0.2030806839, 0.1409413069, -0.1977571696, -0.1130955815, 0.0038532242, 0.0786213651, 0.0343079679, -0.2707093954, 0.0543118380, 0.2212398052, 0.1348041445, 0.0878768116, -0.2757632136, 0.2586478293, -0.2073682547, 0.0367786698, 0.2664329708, -0.0146746784, 0.2647965848, 0.2736234069, -0.2194335163, -0.0745969787, -0.0187985785, -0.0981028453, 0.1142763048, 0.2127108723, -0.2156104594, 0.2072454244, -0.0526921488, 0.2184638828, -0.1291563213, -0.0862786993, 0.2208174765, 0.3300170898, -0.0145008350, -0.1001541689, -0.2710478902, -0.0805300176, 0.1343040168, -0.0852023885, -0.0582718886, -0.2784732282, 0.1134783626, 0.0721821114, -0.2433512658, -0.1914778501, -0.0893492550, -0.2117738426, -0.1803832650, 0.0219565406, -0.0226412565, -0.2185991853, -0.0815341994, 0.0066549540, 0.0664961413, -0.0351464413, 0.0623084307, 0.0890208259, -0.2143644542, -0.0632562935, 0.2143013626, -0.3476891816, -0.2781812549, -0.2244911194, -0.0685525388, -0.0717753991, -0.1624656171, -0.2315502912, -0.0825883374, 0.1454804838, -0.0302524231, 0.0517667085, 0.2524064481, 0.1800515950, -0.0122984182, 0.1432935297, -0.1778646708, 0.0073282011, 0.1271499842, -0.1052472964, -0.3087021410, 0.1371399015, -0.4536749125, 0.1599965990, -0.2517774999, -0.0374343917, -0.0663262308, -0.2808583677, -0.1869984716, -0.1171572581, 0.0914569795, 0.2625813782, 0.1215184778, -0.3732080460, -0.1327241212, 0.1759130508, 0.0057843206, 0.1832778007, -0.1969109178, -0.2233157754, -0.1668806076, 0.2587611377, 0.0892218798, -0.0528817475, -0.0618969537, 0.1309150755, 0.2809810340, -0.2137832493, -0.2875464559, -0.3643410802};
#endif

#endif
