//Numpy array shape [400, 64]
//Min -0.381514847279
//Max 0.346490472555
//Number of zeros 0

#ifndef W9_H_
#define W9_H_

#ifndef __SYNTHESIS__
model_default_t w9[25600];
#else
model_default_t w9[25600] = {-0.0858073607, -0.0001929005, 0.0579459444, 0.0579344183, -0.0492133461, -0.0710534230, 0.0297640078, 0.0261241142, 0.0861200094, 0.0502156466, -0.0558274910, -0.0935589969, -0.0696579441, 0.0637080297, -0.0253479220, 0.0139849475, -0.1032200754, -0.0375407413, -0.0549603775, 0.0078525748, -0.0428285263, 0.0136916442, -0.0977819487, 0.0482382700, 0.0787071437, 0.0033043681, -0.0660965368, 0.1346944422, 0.1120411754, -0.0178053156, -0.1190506592, 0.0240543019, 0.0981272459, 0.0863192230, 0.0180238597, -0.0271587968, -0.0691577345, -0.1016803607, 0.1051498950, 0.0676463917, -0.0748384669, 0.0607085414, -0.1203883216, -0.1265023202, -0.0382810161, 0.0071228421, 0.0529371276, 0.0518336222, -0.0429112203, -0.0189413130, -0.0775218159, -0.0192617606, -0.0643086955, -0.0755812898, -0.0179864615, 0.0761574730, 0.0716140345, 0.0489171594, 0.0786203817, 0.0673431158, -0.0760283098, 0.0729804263, -0.0975896791, 0.0449079834, -0.0126943802, 0.0314385742, -0.0198304094, -0.0387146175, -0.0035347245, 0.0292412937, 0.0425675660, -0.0745961592, 0.0460925549, -0.0389746949, -0.0839835480, -0.0423353165, -0.0528723411, -0.0117265610, 0.0244397447, 0.0570481755, 0.0703813583, -0.0517977178, 0.0238150842, -0.1207892597, -0.0933867767, -0.0648706406, 0.0495406203, -0.0755748749, -0.0035703348, -0.0665792450, -0.0999123827, 0.0573825650, -0.0255381707, -0.0144240763, -0.0248612650, -0.0315134414, -0.0705880299, -0.0144420322, 0.0312424712, 0.0926083699, -0.0852711722, 0.0533066988, -0.0541069210, 0.0894203186, 0.0344989076, -0.0657956451, -0.0184183605, -0.1503239274, 0.1833005697, 0.0446913950, 0.0150001235, 0.0576715842, -0.0199578889, 0.0703544915, 0.0842415094, -0.1419487447, 0.0710196495, -0.0420786925, -0.0779310688, 0.0224275794, 0.0046303286, 0.1034606025, -0.1001972556, -0.0888667107, -0.0520985872, -0.0303318817, 0.0717051327, -0.0454603545, -0.0290911645, -0.0136867585, 0.0680622384, 0.0185521916, -0.0326500200, -0.0703812391, -0.0210829470, 0.0750153884, -0.0974751115, 0.0878742188, 0.0779241696, 0.0301706083, -0.0613109916, 0.0606977791, -0.0801965296, 0.0345193744, -0.0300474241, 0.0809653178, 0.0767501295, -0.0656578839, 0.0799859166, 0.0587878563, 0.0376219824, 0.0671839267, 0.0351192616, -0.0701515302, -0.0424525291, 0.0678806901, 0.0266207680, -0.0401937291, 0.0645560101, -0.0765018389, 0.0099690519, 0.0807270631, 0.0160281807, -0.0225137863, 0.0257661063, 0.0219458342, -0.0067499974, 0.0858699083, -0.0507206693, 0.0116270427, -0.0210136957, 0.0421756208, 0.1258381754, -0.0600395389, 0.0365067236, -0.0743074715, -0.0460325852, -0.1290227771, 0.0345707722, -0.0983782634, -0.0974962562, 0.0513540357, -0.0467955805, 0.0263678171, -0.0361949317, -0.1239769980, -0.1239004433, 0.1039044932, 0.0281870067, 0.0633266941, -0.0788869932, -0.0080369068, 0.0431334600, 0.0741316006, 0.1373395324, 0.0098670954, 0.0534967817, -0.0907673910, 0.0375740565, 0.0564602241, 0.0469149463, -0.0727590099, -0.0945034027, -0.0240765717, 0.1073141918, -0.1148637980, 0.0763238445, -0.0745428950, 0.0586183704, 0.0331533998, 0.0195524022, 0.0656377748, -0.0505758151, -0.0404742360, -0.0279371012, 0.0434364863, 0.1032694429, 0.0251838285, 0.0088330908, -0.0365279242, 0.1214182153, 0.1058355123, 0.0588278510, -0.0890331045, 0.0617191456, -0.0018840806, -0.0970866531, -0.0177997220, 0.0114558572, -0.0856891721, -0.0701972544, -0.0500669666, 0.0296843052, -0.0463925339, 0.0386357754, 0.0829836205, 0.0757536665, -0.0171360169, -0.0576540567, 0.0827060267, 0.0572961904, -0.0947163254, 0.1030367985, -0.0400021374, 0.0807473734, 0.0424344540, 0.1271049529, 0.0044425097, -0.1051571742, 0.0433184654, -0.1300124973, -0.0655592084, -0.0154567100, -0.0053119631, 0.0451401062, -0.1050073057, -0.0764832050, 0.0902011991, 0.0525316745, -0.0773489624, 0.0136255743, -0.0676629916, 0.0842645243, -0.0224089324, -0.0717341453, 0.0572171584, 0.0547870509, -0.0453998223, 0.0210863054, 0.0175439883, 0.0425367057, -0.0029900635, -0.0911973715, -0.0933815688, -0.0029053395, 0.0646357015, -0.0405584760, 0.0996671095, 0.0350658633, 0.0342578739, -0.0613030531, -0.0052186530, 0.1030325368, 0.0133353062, -0.0484397933, 0.0877276212, -0.0028232806, -0.0792320818, -0.0188539550, -0.0500981919, 0.0063537876, -0.1174145713, -0.0060255518, 0.0347128287, -0.1207773015, -0.1176571473, 0.1335675567, 0.0533007234, -0.0856787860, -0.1505739093, 0.1831661016, -0.0244690981, -0.0797563046, 0.0364510454, 0.1810311228, -0.0182659253, -0.0481864922, -0.0524977371, 0.0996930301, 0.0196416173, 0.0525283702, -0.0802243650, -0.0321674831, -0.0385982916, -0.0937569812, 0.0020191423, -0.0606625080, 0.0200304650, -0.0543642491, -0.0823494792, 0.0062402850, 0.0055682240, 0.0070588812, -0.0605030693, -0.1225726083, -0.1058940440, 0.0530980863, 0.0585111566, 0.1271172017, 0.0384352691, 0.0659140944, -0.0670682937, -0.1094769612, 0.0198648553, -0.0878330693, -0.0187842604, -0.0768947229, 0.0178825334, 0.0036558195, -0.0231063180, -0.0318447165, -0.0630288199, -0.0960431248, 0.0192345995, 0.1127063930, -0.0935215056, -0.0273291301, -0.0281789806, -0.0677163601, 0.1433338821, -0.0349493399, 0.0587944612, -0.0764867291, 0.0821776539, -0.0422382988, 0.0522462837, -0.0746231154, -0.0708431080, -0.0132526550, -0.0516895875, -0.0076425574, 0.0598467439, -0.0492388532, 0.0189644564, -0.0319204926, 0.0516818017, -0.0902468935, -0.0090387408, 0.1316430867, -0.0412915945, 0.1190420911, -0.0778419003, -0.0394282490, -0.0471111052, -0.0093558971, 0.0298035406, 0.0868233740, -0.0903454125, -0.1254752129, 0.0773583055, -0.0084573021, 0.1105509773, -0.0721611306, -0.0545664616, 0.0569235757, -0.0554269701, -0.0330830999, -0.0694183335, 0.0509326160, 0.0579049811, -0.1036255956, 0.0515995026, 0.0004202272, 0.1166229099, -0.0279611666, 0.0155984797, 0.1042017937, -0.0664519444, -0.0452381447, -0.0353096277, 0.0925209671, 0.0383522809, 0.0160275139, 0.0637283176, -0.0334539339, 0.1004835144, -0.1116627529, 0.1092865542, -0.0078931767, -0.0130921211, -0.0818358958, -0.0040206937, -0.0960717201, 0.1187993810, -0.0627137795, -0.0789887682, -0.0430349782, -0.0133449836, -0.0451095551, -0.0770457759, 0.0334581658, 0.0046705618, -0.0689293444, -0.0655642003, -0.0595041215, -0.0528483167, 0.0150807044, -0.0429500937, -0.0258351881, -0.0087256217, -0.0399449393, 0.0524531640, 0.0939415321, 0.0422729254, -0.0214151070, 0.0500688702, -0.0118901925, -0.0462497473, 0.0378205180, 0.0678418130, 0.0161173157, 0.0828208253, -0.0497138090, -0.0024005503, -0.0253247041, 0.0437955000, 0.0310419090, 0.0616334155, 0.0310694575, 0.0007237051, -0.0728250220, -0.0278896764, -0.1175953746, -0.1396034956, 0.0023766870, 0.0502608381, 0.0401889905, 0.1003751531, 0.0689279884, -0.0037166970, 0.0948097855, 0.1010702476, -0.0830650479, -0.0166073311, -0.0050187074, 0.0825069323, -0.1520205438, -0.0646863282, 0.0501808077, -0.0192585401, -0.0531174093, 0.0644888505, -0.1337519288, -0.0441546403, 0.0611242950, -0.0378147289, 0.0201667137, 0.1154215485, -0.0648246780, -0.1123438030, 0.0198309161, -0.0031860142, -0.0214061067, -0.0672924966, -0.0820256174, -0.1040592715, 0.0573207252, -0.0917229503, 0.0808071122, -0.0366078131, 0.0256632678, -0.0805123970, 0.1146108583, 0.0955533832, -0.0100981416, -0.0194334295, -0.0082945032, -0.1001133025, -0.0454881936, -0.1168436706, -0.0065725362, 0.0306915864, 0.0676710308, -0.0284929276, -0.1385319084, 0.0699770749, 0.0796375498, -0.0171594117, -0.1153311133, -0.1056721434, 0.0057915826, -0.0980235189, -0.0295936577, -0.1008223370, -0.0580865666, -0.0079596927, 0.0826903954, -0.1377148926, 0.0256071221, -0.0086774379, 0.1595107764, -0.0201288890, 0.0305871218, -0.1065514758, -0.0059942114, 0.0437668338, 0.0713463873, -0.0173191987, -0.0356594510, 0.0269469284, 0.0125114303, -0.1308243275, -0.0041479776, -0.1174251884, -0.0511501059, 0.1343260705, 0.1303608567, 0.0564532466, -0.1388426721, 0.0371823460, 0.1287410259, -0.0546022318, -0.0871272013, 0.1069067493, 0.0468399860, -0.0086219264, 0.0782412440, 0.0345195979, 0.0746965185, 0.0056374539, -0.0091661615, -0.0940333456, 0.0759531185, 0.1281474233, -0.0594071373, -0.0094350604, 0.0122143002, -0.0523449667, -0.0200803448, -0.0017911160, -0.0150557971, -0.0206740759, -0.0564649925, -0.0378140137, -0.0040261569, 0.0985584781, -0.0372128598, -0.0436182134, 0.0915139169, 0.0036956181, -0.0815691426, 0.0681033507, 0.1131295487, 0.1136601046, 0.0322710648, 0.1076022014, -0.1223965734, -0.0676197708, -0.0267441552, 0.0741250888, -0.0215071086, 0.0243545417, -0.0569813065, -0.0650884584, 0.0332844406, -0.0603395998, -0.0112430910, 0.0119653977, -0.0908638239, 0.0809995458, 0.1014497057, 0.1165086105, -0.0736858845, 0.0749235451, -0.0462124534, 0.0393725969, 0.0771481097, 0.0613814928, -0.0554681569, -0.0977257043, 0.0922765508, -0.0264131166, -0.0763089359, 0.0245692339, -0.0166084338, 0.1633627862, 0.0691630244, 0.0633445084, 0.0410245024, 0.0126799308, -0.0114547359, 0.0407318212, -0.0854705051, 0.0767372623, -0.0516954884, 0.0080467612, -0.0665956810, 0.0677267611, 0.0449183173, -0.0172256734, 0.0637041554, -0.0916125923, 0.0788861737, 0.0165653825, 0.0584041066, -0.0260048378, 0.0416991599, -0.1114971191, 0.1031302363, -0.0254108850, 0.0092201531, 0.0741442293, 0.0330192223, -0.0192619599, 0.0435277559, -0.0701739267, 0.0007816203, -0.0346785113, 0.0907715186, -0.0661651194, -0.0551374145, 0.0823969916, 0.2073276639, 0.1515730470, -0.0313473940, 0.0785872042, 0.0810985193, -0.0576902218, -0.1080386415, -0.1124944985, -0.0234159026, -0.0811362192, -0.0095217768, -0.0541617908, -0.0131459320, 0.1241799444, 0.0119121373, 0.0194591247, -0.0152909681, -0.1509214044, -0.1506820917, -0.0545717962, -0.0342638381, 0.0052315495, 0.0169378407, -0.0618165061, 0.0025678528, -0.0798007995, 0.0289774127, 0.1148503572, -0.0597178712, 0.0523638576, -0.0444685146, 0.0205026865, 0.0364901200, -0.1002262905, 0.0905546546, -0.0583092980, 0.1175549179, -0.0852784067, -0.0020068150, 0.1106895059, -0.0674193576, -0.0848043337, -0.0077079544, -0.1524713188, -0.0730702654, -0.0212460272, 0.0021811856, -0.0992195979, 0.0623625182, 0.0742832348, 0.0000563583, -0.0518163592, 0.0651627034, 0.0301816035, 0.1139539406, 0.0073061739, -0.0734065175, -0.0390984714, -0.0335938931, 0.0279464424, -0.0408791304, -0.0848168209, 0.0690148026, 0.0678727925, 0.0661688745, 0.0747348741, 0.0276387595, 0.0760508999, -0.0613803566, -0.1396160573, 0.0479619615, 0.0057511576, -0.0465992354, -0.0559035204, 0.0757380500, -0.0640730336, -0.0813190565, -0.0719249398, -0.1029179171, 0.0847053155, -0.0783385187, 0.0689895600, -0.1179090291, -0.0130129056, -0.0084779039, -0.0433106162, 0.1087248474, 0.0520833060, -0.0878022909, -0.0976301804, 0.0352502614, 0.0654637367, -0.1304603070, 0.0751442239, -0.0247688107, 0.0421398208, -0.1155498102, -0.0263375007, -0.0548536144, 0.0747211576, -0.0825210661, -0.0022539834, -0.0525500961, -0.1005323008, 0.1165802404, -0.0060455394, -0.0240761358, 0.0246189591, 0.0249662697, 0.0154684046, 0.0420329906, -0.0771855563, 0.0119460505, -0.1027173996, -0.0759287104, 0.0629265010, -0.0132371867, -0.1276095212, 0.0154805277, -0.0307351295, -0.0788480490, -0.1125968397, -0.1229833588, 0.0229808744, -0.0660761446, -0.0059047542, 0.0284666959, -0.0318501405, 0.0501944609, 0.0046178401, 0.0325862356, -0.1271143407, 0.0776428133, -0.1353928000, 0.0766365528, -0.0832565352, -0.0099536357, 0.0793824717, -0.0938725770, -0.0974510014, -0.0098934341, -0.0751996264, -0.1379992366, 0.0735078529, -0.0540614203, -0.0609118566, -0.0524331443, 0.0163610205, -0.0547180213, -0.0192235168, -0.0695073530, -0.0566698089, 0.0383245498, 0.1435129642, 0.1352298856, 0.0883995965, 0.0107279066, 0.0397692993, 0.0316821039, -0.1238604560, 0.0650181249, -0.0633556768, -0.0493934676, -0.1063952670, 0.0227482952, -0.1092513800, -0.0328277051, 0.0529866330, -0.0851803273, -0.0386661515, 0.0299907513, 0.0840408280, 0.0528746471, 0.0958872363, 0.0194960199, -0.1587677300, 0.0501580797, -0.0715729818, 0.0393357426, -0.1392501593, 0.0022587054, -0.0228652488, -0.0060703624, 0.0012612726, 0.0767047927, -0.0765754357, -0.0020673480, 0.0615787283, 0.0642173439, -0.0326187238, -0.0133420601, 0.0466528125, 0.0851651356, 0.0019028869, -0.0579056069, 0.0120001920, -0.0648154169, -0.0967151672, 0.0315300152, 0.0142801674, -0.0107918466, -0.0703856349, -0.0326040201, 0.0558546782, -0.0698624775, -0.0608377680, 0.0414167084, -0.1342627108, -0.0719187856, -0.0316485986, 0.0587550327, -0.1295988709, -0.0607221015, -0.0237904992, 0.0948722139, -0.0409943871, -0.1157865301, 0.0040364526, 0.1849386692, -0.0052610165, -0.1382614374, 0.0892653167, 0.1011735424, -0.0537980571, 0.0754530430, 0.1012515202, 0.0092910565, -0.0658318847, -0.0601099581, -0.1284065992, 0.0957153738, 0.0741817355, -0.0963187888, -0.0704909042, -0.0632684380, -0.0442737155, -0.1145517677, -0.0391088091, 0.0465200283, -0.0913909525, 0.1501902938, 0.0028025473, -0.1085606217, -0.0709117353, -0.0561794303, 0.0008471937, -0.0881935209, -0.1386182010, -0.1136474535, 0.0492574126, 0.0414129570, 0.0739739537, 0.1003745496, 0.0055565475, -0.0453255288, 0.1048315987, 0.0190340932, 0.1624009758, 0.0164137334, -0.1194450110, 0.0837853849, -0.0461115912, -0.0562357977, -0.1622519344, 0.0103416732, 0.0580894016, 0.1056117788, 0.0055663753, -0.1190692261, -0.0495107993, -0.0558018573, 0.0344468579, 0.1098585650, -0.0989720225, -0.1099209934, 0.0728006959, -0.0566266067, 0.1201132089, -0.0046418617, -0.1066267267, -0.0712310076, 0.0909310654, -0.0630937293, 0.1046605259, 0.0399752371, 0.0200705715, -0.0003688788, 0.0441623032, -0.0000718727, 0.1023836881, 0.0891987681, -0.0734789521, -0.0214429405, 0.0459328964, 0.0919009075, 0.1669643372, 0.0837505087, -0.0082055870, 0.1780736595, 0.0008443880, -0.0506484360, -0.1107326746, -0.0280165523, 0.0766744316, 0.1010885239, 0.0636808649, -0.0108877337, 0.0682466552, -0.0039445222, 0.0816343948, -0.0184078943, -0.1158303469, -0.0802905187, -0.0755935460, -0.0365265012, 0.0682879984, -0.0351961330, -0.0555619374, -0.0510966480, -0.0798606202, -0.0422121137, 0.0061074644, -0.0504100882, 0.0289114788, -0.1120135412, 0.0781895593, -0.0910573900, 0.0126536060, -0.0316721387, -0.0400267057, 0.0331787728, -0.0091856671, -0.0151572581, 0.0626659319, -0.0363440029, 0.0593808703, 0.0465461649, -0.1166035235, 0.0772603899, -0.0031586122, 0.0286478661, 0.0152594978, -0.1160813197, 0.0027204759, -0.0131191565, 0.0693861470, -0.0790809840, -0.0138078174, -0.0996581391, 0.0572200790, -0.1226170510, -0.0904351249, -0.0500520468, 0.0917541161, 0.0332073681, 0.0357181020, -0.0677499250, 0.0256702881, 0.0174231473, -0.0877566859, 0.0325973779, 0.0350935236, 0.0757949203, -0.0875391439, 0.0196624435, -0.0675786361, -0.0475270413, -0.0170872957, 0.0385799445, -0.1028421670, 0.0173402391, -0.1122838780, -0.0062386580, 0.0062522208, 0.0822024494, 0.0003503523, -0.1126072928, 0.0985299721, -0.1312811971, -0.1042744294, -0.0132756801, -0.0154177090, -0.1060059443, -0.0337528028, -0.2189597785, 0.0455839299, -0.0167312883, -0.0576870777, 0.0642403215, 0.0540878028, -0.0494207405, -0.0303815398, -0.0699828118, -0.0336181261, 0.1241362765, 0.1186939850, 0.1119420528, -0.1243833899, -0.1465616375, -0.1001915783, -0.0544684716, 0.0389252529, -0.0744548142, -0.0596012399, -0.0776353106, -0.0222472735, 0.0964924023, 0.0679689422, 0.0672363937, -0.0178274326, -0.0093111573, 0.1426660866, -0.0401578620, 0.0011972759, -0.0331746414, -0.0920165926, -0.0289537907, 0.0671188459, 0.0731588006, 0.0042595807, 0.1239837706, 0.0684860200, -0.0549172573, -0.1168040037, 0.0044969935, 0.0915403217, 0.0580726601, 0.0833370537, -0.0605908148, -0.0529315583, 0.0221581776, -0.0615933985, -0.1059668809, 0.0057106372, 0.0422001295, -0.1464010477, -0.0399129875, 0.0590200014, 0.0077198050, 0.1137220785, -0.0834442079, -0.0433358438, -0.0366243571, -0.0539837889, -0.0799052194, -0.0350115858, -0.1066001058, -0.1015454009, 0.0055232495, -0.1304306388, 0.0672249421, -0.1405666769, 0.0623097904, -0.1037836671, 0.0486000590, 0.0097649666, 0.0382493585, -0.1088140085, -0.0425685197, -0.0662255809, -0.0991102979, -0.0525833219, 0.0203998536, 0.0427928641, -0.1777720749, 0.1324589700, -0.0385996550, -0.0218543783, 0.0604498535, 0.1101698205, -0.0693617761, -0.0655480251, 0.0113308039, -0.0416291580, -0.1218304485, 0.1287311167, 0.1458958685, 0.0869124979, 0.0136673013, 0.0632923469, 0.0443991013, -0.1195119768, 0.0820024163, -0.0833752677, 0.0636091530, 0.0132320561, -0.0482070930, -0.1451842934, 0.0285181906, 0.0021769647, 0.0032782853, 0.1379068941, 0.0093411496, -0.0014457863, -0.0317479521, -0.0902571976, -0.0189958513, -0.0619391985, 0.0071303202, -0.1174695939, -0.0673616827, -0.0457780659, 0.0821440294, 0.0971384197, -0.0217034444, -0.0400980860, 0.0965072215, -0.1587647349, -0.1234977394, 0.0542775132, -0.1170297042, -0.0180928186, -0.0285351668, 0.0635557026, -0.0036879610, -0.1032426953, -0.0701181218, -0.0160129853, -0.0597432591, 0.0576416105, -0.1041260138, -0.0114854630, 0.1223462969, -0.0089817699, -0.0793024749, -0.1092086285, 0.0040422399, -0.1279186159, 0.0346661545, 0.0162668582, 0.0603060313, 0.0305245481, -0.0785049796, -0.0193087794, 0.0986424834, -0.1015927196, 0.0730624944, -0.0077192509, 0.0060734837, -0.0224097688, 0.0107477326, 0.0757358968, 0.0790102556, -0.0396112353, -0.0844948739, -0.1189960837, 0.0201581791, 0.0839273706, 0.0593971536, -0.0774701908, -0.1025248170, 0.0285812672, 0.0650464520, -0.0309960339, -0.0075636520, -0.0172389057, 0.0575491749, 0.1441210061, -0.0453577749, -0.0038525048, 0.0339883901, 0.0489415191, -0.1277083755, -0.1081341729, -0.0899510756, 0.1081720963, 0.0834660158, -0.1043942943, -0.1286165714, 0.0768438801, -0.0644108728, 0.0631191060, 0.0538356528, -0.1431642175, 0.0125475926, 0.0268435944, -0.1289636195, 0.0577016361, -0.0687540174, 0.0324536972, -0.0889148712, -0.0333295502, 0.0699453801, -0.0741247311, 0.0870289877, -0.0462473258, 0.1159074679, 0.0842870697, 0.1164323613, 0.0419039689, 0.0099064419, -0.0040648365, 0.0860476568, -0.0550173968, 0.0445422567, 0.0292063598, -0.0090606399, 0.0704625994, -0.0043241498, -0.0211057235, 0.0413063951, 0.0020548380, 0.0313214138, 0.0860951394, -0.0611711852, 0.0479423515, 0.0646026954, 0.0233826116, 0.0407468788, -0.0156115694, 0.1086184606, 0.0470186658, 0.1319457442, 0.0241691582, 0.0553415604, -0.0582242310, 0.0298663750, 0.0940822661, -0.0103100650, -0.0434337333, 0.0038388809, -0.0072810403, -0.0343564041, -0.1097936407, 0.1038348302, -0.0397457443, 0.0524221286, -0.1471527964, 0.0294427779, -0.0272345766, -0.0274553932, -0.0630236268, 0.0685247779, -0.0403712280, -0.0802343264, 0.0237465017, -0.1031628624, 0.0814467445, 0.0666434839, -0.0084700435, -0.0638199374, -0.0604496524, -0.0481642932, -0.0437607951, 0.0521170795, -0.0728554055, -0.0532027744, 0.1038744673, -0.1136793867, 0.0184527710, 0.0787608996, -0.0155875711, -0.0198074896, 0.1021424755, 0.0753738284, 0.0998153836, -0.0176626705, 0.0860468969, 0.0063034035, 0.0623536818, 0.0822195038, 0.0919685289, -0.1249139309, -0.1021283865, -0.1003114507, -0.0488883071, 0.0091448836, 0.1471154988, 0.0692136735, -0.0389295705, -0.0230950490, 0.0525420047, -0.0499226153, -0.0095195286, 0.0880133212, -0.0013626372, 0.0314509012, 0.0047047376, 0.1120469570, -0.0808054507, 0.0851221159, -0.1512009948, 0.0988862514, -0.0217999984, 0.0303158667, 0.0887353867, -0.0140677681, -0.1192179620, -0.0046518622, 0.0665674731, -0.0214788783, -0.1542710960, -0.0736775473, 0.0798248574, -0.0539436378, -0.0558124296, -0.0418210216, 0.0373688377, 0.1033813432, -0.0731357336, 0.0910612717, 0.0961433649, 0.0891034976, 0.0325476117, -0.1263670325, -0.0269165095, 0.0573871024, -0.1417111456, 0.0347985737, -0.1176788732, 0.0269756112, 0.0194483455, -0.0955736637, -0.1118429825, 0.0755565837, 0.1001728997, 0.1262911856, -0.1363694370, -0.0595781282, 0.0286100041, -0.0407385528, -0.0694543719, 0.0164671093, -0.0649990141, 0.0449754186, -0.0155213969, -0.0736493468, -0.0426405258, 0.0202644058, 0.0107304007, 0.0158122145, 0.0057827290, -0.0094003361, 0.0075500389, -0.0248211492, -0.0355601832, 0.0987763852, 0.0791951269, 0.1145729050, -0.0715916008, -0.0574521124, 0.0691715553, 0.0724574700, 0.1170616969, -0.0724464729, 0.0155051611, -0.0745509267, -0.0365610719, 0.0584405661, 0.0293119978, 0.0578231253, -0.0065774987, -0.0291782226, 0.0643710420, -0.0553972647, -0.0266830549, -0.0234112814, -0.0041454113, -0.0898969620, 0.0328404382, -0.0665141195, 0.1190184280, -0.0839903951, -0.0313695483, 0.0028924677, -0.1381276846, -0.0223508775, 0.0773750618, 0.0300312806, -0.0992343426, -0.0293254983, 0.0104973996, 0.0861266255, -0.0054824003, 0.0983916298, 0.1346173882, 0.0477558933, -0.0466855355, -0.0156966392, -0.0974647030, 0.0225452799, -0.0874778330, 0.0913965330, 0.0173223130, -0.1431442499, 0.0577927083, 0.0149454875, 0.0230520349, -0.0750823095, 0.0929827616, -0.0785098374, -0.0696273223, 0.0151990363, 0.1452290267, -0.0302631278, 0.0740895718, 0.0385662392, -0.0708239451, -0.1118801162, 0.1373401284, -0.1060709134, 0.0171244964, -0.0906460360, -0.1001692861, -0.0603949577, -0.0000883863, -0.0343475230, 0.0225837212, -0.0369021147, 0.0504703410, 0.0410556048, -0.0628946647, -0.0667418092, 0.0170736033, 0.0042544734, 0.0854969919, -0.0759280846, -0.0413473472, -0.1253954619, -0.0211962927, -0.0165869631, -0.1216358691, 0.1068473607, -0.1030745357, -0.1110622063, 0.0707050040, -0.0683208108, -0.0523730405, -0.1010044515, 0.0866793543, -0.0184478089, -0.0645116791, -0.0160992853, 0.0100261839, 0.0920451656, 0.0521165654, -0.0364259444, -0.0372492410, 0.0989281088, 0.0255220588, -0.0729183704, -0.0553603321, -0.0043563056, -0.1027193218, 0.0768532902, 0.0662966743, -0.0280219801, 0.1159970686, 0.0135637103, 0.1694113463, 0.1882491708, -0.0278404802, -0.0913361087, 0.0388286375, 0.0239299815, -0.0251737349, -0.0413853340, -0.0370475091, 0.0661195442, 0.1051764637, -0.0043609180, -0.0913615003, 0.0175549015, 0.1562812775, -0.0718688592, -0.0712485239, 0.0076980134, 0.1012866423, 0.0383555554, 0.0237743650, -0.0324577279, -0.1363780200, -0.0207376666, 0.0369344167, -0.0185255669, 0.1495838761, 0.0721859708, 0.0455285162, -0.0504756346, 0.1023004726, 0.0969393700, -0.0903793201, -0.0662207380, -0.0288392268, 0.0334898196, -0.0146505823, -0.1022527367, -0.0927587599, -0.0525995642, 0.0300993044, -0.0299622603, -0.0074292351, 0.0772389397, -0.0206317790, -0.0961485058, -0.0881602764, 0.0617590360, 0.1288308352, 0.1200969145, 0.0765422881, -0.0517383888, -0.0205588825, 0.0237928089, -0.1602851152, 0.1508303881, 0.1278994381, 0.1476854682, 0.1953700334, -0.0475524366, -0.0449467674, -0.0980808660, 0.1637998968, -0.0899975002, -0.0759748742, -0.0330960900, -0.0998211056, -0.1143838987, 0.1016126648, 0.1643260270, -0.0845239982, -0.1018368974, -0.0035828776, 0.0858420655, -0.1440729499, 0.0417826809, 0.1675387621, -0.1068140119, 0.0436152183, 0.0461171456, 0.0141623607, 0.0264556985, 0.0439126417, 0.2121883631, 0.0888960212, 0.0830944479, -0.0696906671, 0.0384503715, -0.0883898064, 0.0908531025, -0.1324916184, 0.1271596849, -0.1272835135, -0.1884000003, -0.0420001373, -0.2095431089, 0.0757101625, -0.0582886897, 0.0107474700, -0.0839418620, -0.0627353340, 0.0997817665, 0.0921788439, -0.1048893929, -0.0432562605, 0.1453380883, 0.0365650207, -0.1655951589, -0.0471877195, -0.1017556414, -0.1066135913, -0.1156401858, -0.1162946522, -0.0544546172, 0.0454590991, 0.1109721959, 0.0241169780, -0.0703547150, -0.0454501584, 0.1064109132, -0.1216569990, 0.0595465861, 0.0473816730, -0.0020699978, -0.0969243348, -0.0820468590, 0.0870816037, -0.0798635930, -0.0532117337, 0.0800056607, 0.0728924125, -0.1027036384, -0.0745962262, -0.0667136237, 0.0550456084, 0.0019392919, 0.0717024952, -0.0186870620, 0.0023361596, 0.0171976276, -0.0316580683, 0.0646688193, -0.0736342072, 0.0222391728, -0.1102365479, -0.0323986188, 0.0764286891, 0.0754370466, -0.0066151912, -0.0855537131, -0.0505128242, 0.1304031909, -0.0819677338, -0.0261887684, 0.1140445173, -0.0087143630, 0.0619072802, 0.0434642807, 0.0065994980, 0.1055697054, 0.0472517982, -0.0833240971, -0.0672476590, -0.0112413391, 0.0284353830, 0.0693879649, -0.0577756837, 0.0680287406, 0.0614968985, 0.1002381593, -0.0808154345, 0.0020152752, 0.0954849571, -0.0697370842, 0.0318599418, 0.1028466225, -0.0638314411, -0.2005825937, -0.0865376294, 0.0886527821, -0.1487623155, 0.0101655200, 0.0284960363, -0.1761438251, -0.0231998172, 0.0514204502, -0.0607779734, -0.0750235096, 0.0297255740, 0.0244917832, -0.0712307692, 0.0726742521, -0.0462289266, 0.0645893961, -0.1227210462, 0.0618847571, -0.0161573663, 0.0846321881, -0.0958922803, 0.0448904969, -0.1188569814, 0.1084083989, 0.1445681602, -0.0539338477, 0.0038856328, -0.0098467274, 0.0649214089, -0.0158188008, 0.0306050442, 0.1242209375, 0.0228120964, -0.0910960957, 0.0645996034, 0.0150497006, -0.0153008290, -0.0136291571, 0.0421709307, -0.0261439700, 0.0917086527, -0.0303005949, 0.0119620943, 0.0682477131, 0.0096919639, -0.0470378883, -0.0375013947, 0.0208038241, 0.0191494823, -0.1011098027, -0.1064344645, -0.0412419289, 0.0090646110, -0.0859375075, -0.1288106143, -0.0476946272, -0.0589296855, -0.0213545151, -0.0746563971, 0.0858498588, -0.0992313847, -0.1147256196, 0.0117937215, 0.0793769956, -0.0619821437, -0.0057202084, -0.1143830866, 0.1126655340, 0.0515171029, 0.0408823043, 0.0773148164, 0.0848277807, 0.0860967040, -0.0033421647, -0.0000027784, 0.0958121344, 0.0771693662, 0.0889092907, -0.0927717388, -0.0121233389, -0.0297546294, -0.0488155782, 0.0316731595, 0.0826722383, 0.0577027611, -0.0413931943, 0.0065185055, -0.0755539909, 0.1432530284, 0.0571951717, -0.1104413122, -0.0703404769, 0.0256110225, 0.1059345379, 0.0332294181, -0.0845924839, 0.0236932486, 0.1103054658, -0.0654484183, 0.0704465136, -0.1021689028, -0.0972290412, 0.0536927804, 0.0146780321, -0.0509536788, 0.0037756190, 0.1079554632, -0.0768814534, -0.0184310619, -0.0011337748, -0.0916313976, 0.0008754822, -0.1273892522, -0.0378404222, 0.0193517040, 0.0919116065, -0.0922932327, -0.0478809923, -0.0647364557, -0.0172747876, -0.0463658646, 0.0697183311, 0.0407852419, -0.0424029566, 0.0881805196, -0.1291079223, 0.0525206998, -0.0573136881, 0.0746251196, 0.0840696916, -0.0571510904, 0.0445185900, -0.0779445097, -0.0619045310, 0.0621355660, 0.0473282933, -0.0378475003, -0.0200169664, 0.0045511494, -0.0836178884, -0.0215442032, -0.0837792829, -0.1087522507, -0.1311146617, -0.1311749965, 0.0960102975, -0.1134996787, 0.0377896428, 0.0009228270, -0.0902885124, 0.0709523037, -0.0544503629, 0.1364025027, 0.0041731670, 0.1151944250, 0.0101204198, 0.0464412645, -0.0050808010, 0.0083151637, 0.1298443377, 0.0256997775, 0.0776068494, 0.0447457470, -0.0198619533, -0.0834606290, 0.0322176889, -0.0015582091, -0.0432609618, -0.0029925918, 0.0755185485, -0.0474405512, 0.1007034555, 0.0593372323, 0.1153197363, -0.1031476930, -0.1259015352, -0.1650602221, 0.1031489223, -0.0340475254, -0.0022850323, 0.0576827005, -0.0088936109, 0.0247279070, -0.1130012274, 0.0475525483, 0.0627713650, -0.1054180935, 0.0478339344, 0.0791056156, -0.0539647415, -0.0762067512, -0.1451523304, -0.0378481559, -0.0699668452, 0.0504933372, -0.0333275720, -0.0406882241, -0.1171602160, -0.0658537969, 0.1196641177, 0.0612830408, 0.0183728598, 0.1062854156, -0.0214459840, -0.0836653784, -0.0111143589, 0.0266487896, 0.0500937924, 0.0732728541, -0.0669609532, -0.0636911988, -0.0083192177, 0.0483140722, -0.0412507094, 0.0176210161, 0.0448851623, 0.0748636350, -0.0743961036, -0.0240375195, -0.0125545040, 0.0244873129, -0.0943217352, -0.0215809550, -0.0086777564, 0.0427531451, 0.0256198738, 0.0588362515, -0.0642910972, -0.0485279039, -0.0427719466, -0.0649134144, 0.0360004865, -0.0648990795, -0.0527479760, 0.0153734470, 0.1277454346, 0.0338863954, 0.0758867711, 0.0212772805, -0.0365731046, -0.0195881166, 0.0111791976, -0.1033915281, -0.0158394743, 0.0402942114, 0.0624161363, 0.0134253968, 0.0493083708, 0.1193127111, -0.0870280787, 0.0628603622, -0.0008243729, -0.0679226220, -0.0576313660, 0.0509406514, -0.0372840390, 0.0186086558, 0.0152110718, 0.0512890629, 0.0028861298, 0.0453436226, -0.0748035461, -0.1182426363, 0.0305581819, -0.0064510903, 0.0471181646, -0.0248347856, -0.1466319263, 0.0247330833, 0.0023725650, -0.1737316549, -0.0163781755, 0.0471594185, -0.0765107647, -0.0891847834, 0.1129630804, -0.1026031375, 0.0326216929, 0.0555606410, 0.1220600232, 0.0253018327, -0.0253748354, 0.1399840415, 0.0353099890, -0.1148996353, 0.0360523760, 0.0306835473, 0.0363346040, 0.1252003908, 0.0446505956, 0.0000345969, 0.1066025272, 0.0680600926, -0.0758577064, -0.0819672346, 0.1161690801, 0.0548031144, 0.0054337080, 0.1160641983, 0.1156053171, -0.0993333161, 0.0959169790, 0.0915795341, 0.0697732717, -0.1058931351, 0.0566100962, 0.0805484354, -0.0996278599, -0.0221203621, -0.0443415307, -0.0589772873, -0.0499030575, 0.0184329879, 0.0149636399, 0.0739965588, -0.0029340382, -0.0538975447, -0.0848791152, 0.0658295378, -0.0291347783, 0.0302299932, 0.1239924729, 0.0092577850, -0.0249441173, 0.1263853461, 0.0514440984, -0.0166104939, 0.0404042080, -0.0584316328, 0.0573262572, -0.0246532243, 0.0112461857, -0.0140880942, 0.0401369743, 0.1206138879, -0.0332944430, -0.0335104428, 0.1048390567, 0.1276288778, 0.0671358109, -0.0378993265, -0.1161368191, 0.1183382273, 0.1036069170, -0.0639238209, 0.0745806620, 0.0379754230, -0.1226781979, 0.0298692584, -0.1032244414, 0.0068292371, -0.0706048235, 0.0064746151, -0.0216686111, -0.0754153132, -0.0171277449, -0.1715417057, 0.0819959342, -0.0722013637, 0.0245773979, 0.0334310159, 0.0140486592, 0.0296985637, -0.0435024761, -0.0764497519, 0.0664982349, -0.0501404032, 0.0581515096, -0.1415783316, 0.0310974512, -0.1247378886, -0.0124499779, -0.1026279107, 0.0771257654, -0.0495168902, 0.0641544238, -0.0911685526, -0.1237992644, 0.0786200985, -0.0018143657, 0.0295322388, -0.1873310804, -0.1261661500, 0.0688536763, -0.0668732971, -0.0828116164, 0.0686464384, 0.0926088095, 0.1741647720, 0.1219091415, -0.1141828448, -0.0059988340, 0.0765779614, 0.0300074723, -0.1309556216, -0.0819284990, -0.0213468783, 0.1010149792, -0.0436927676, -0.1031064689, 0.0097957486, 0.0009921598, 0.0666295141, 0.0579169951, 0.0048919441, 0.0379449390, 0.0396721810, 0.0061876141, 0.0099013168, -0.0185569581, -0.0979397893, -0.0266430378, 0.0746969804, -0.1053943709, -0.1003988609, -0.1136081740, 0.1175661683, 0.2075063735, -0.0592755415, -0.1238676384, -0.0246042479, -0.0945742577, -0.0648130551, 0.0551844761, 0.0940089524, -0.0513019785, 0.1100766361, -0.1290658265, -0.0905032605, -0.0025475151, 0.0933897048, -0.0090701040, 0.0790833756, 0.0263053235, -0.0620029010, 0.0171873290, -0.0030142793, -0.1236899421, 0.0965621397, 0.0360372402, 0.0235454384, -0.0955210850, -0.0179487653, 0.0126970103, -0.1001732647, -0.1217220724, 0.0597305149, 0.0675903931, -0.1368828416, 0.0159042794, 0.1089824140, -0.0227118395, -0.0099804075, 0.0122987349, 0.1040348187, 0.0073644249, 0.0065719374, -0.0344776027, 0.0413907468, -0.0040906854, 0.0745505989, 0.0295406077, 0.0256848987, 0.0745146796, 0.0490762331, 0.0883632228, 0.0723041967, -0.1177317649, 0.0579965152, -0.0738281012, -0.0383169986, -0.1203195453, -0.0075141815, 0.0581886806, 0.0404155925, -0.0872193426, 0.1430423856, -0.0422574542, 0.0501298346, 0.1214206144, -0.0430345088, -0.1345223933, 0.1139945611, 0.1776157469, -0.1521437317, 0.1032719538, -0.0976994261, 0.0805128589, 0.0967034176, -0.1096623540, 0.0548354127, 0.0221722778, 0.0426881909, -0.0643448681, -0.0539200455, -0.0171736106, -0.0171593558, 0.0622179583, -0.1911703050, -0.0757533610, 0.0029097612, -0.0528422780, 0.0599856414, -0.0126059912, 0.1142281666, 0.0552507229, 0.0475016087, 0.0301429853, -0.0972193405, -0.1762310863, -0.1797351837, 0.0116422065, 0.0562010035, -0.0493760556, 0.0391186364, 0.0341627412, -0.0398405530, 0.0385028049, 0.0019712818, 0.1153432429, 0.0538927056, 0.0013534974, 0.0395830050, -0.0764662698, 0.0699205101, 0.0395071208, 0.0078584738, 0.0651556849, -0.0371557325, -0.0190212578, 0.0719469488, 0.0837999061, -0.0028577417, 0.0550015271, 0.0656632259, 0.1171968132, -0.0115382774, 0.0753299370, -0.0157406479, 0.0617971011, 0.0843153894, -0.0878275484, -0.1089148000, -0.0269214790, 0.0839228779, 0.0532588512, 0.0310698766, 0.0283561386, -0.1135820001, -0.0045652883, 0.0827205852, -0.1091982946, 0.0682573989, -0.0127046825, -0.0192786232, -0.0685804710, 0.0316247009, 0.1245411709, -0.0329266787, -0.0351946279, 0.0481101125, 0.0662552342, -0.0538509972, 0.0760997534, -0.0759655535, 0.0291709378, 0.1804358512, -0.0212038551, 0.0993729755, 0.0172132831, -0.1432323754, -0.0489354022, 0.0595034063, 0.0611825027, -0.0601366982, -0.0093750702, -0.1016671211, -0.0797444284, -0.0729929432, 0.0814456195, 0.1121400520, -0.0138335908, -0.0063933241, 0.0765006393, 0.0965933278, 0.0090460610, 0.0499265529, 0.0097661652, -0.0664237216, 0.0744770542, 0.0684899315, 0.0581869557, -0.0047953445, 0.0393168628, -0.0010300264, 0.0790392309, -0.0929236859, -0.0041790842, -0.1093689650, 0.0788631067, 0.0172030646, -0.0142712900, -0.0869766399, -0.0289075542, 0.1523990929, -0.0047052489, -0.0062214090, -0.0224709846, -0.0664866641, 0.1453047991, 0.0732161552, -0.1126253307, -0.0434221774, 0.0274236761, 0.0316440649, 0.0424586497, 0.1254018992, 0.0598013662, -0.0808547065, -0.0264965817, 0.0284494031, 0.0449864976, -0.0513894260, -0.1172422171, 0.0340491422, -0.0158976950, 0.0823474452, -0.0171213411, 0.0720659718, 0.0285767075, 0.1018807739, 0.0553192236, -0.0119474558, -0.1148569658, -0.1269115210, 0.0912059471, 0.0418317877, 0.0609248541, 0.0483771712, -0.0524126776, -0.0177317020, 0.0746172965, 0.0195862949, -0.0311098788, -0.0237165876, -0.1134425178, 0.1069829687, -0.0159944445, -0.0251439307, 0.0395694040, 0.0655346811, 0.0836265013, 0.1770523340, -0.0272628982, 0.0646650493, -0.0961182937, 0.0266552772, -0.0004764728, 0.0012732375, -0.0639989451, 0.0576181524, -0.0948156938, -0.1522153318, 0.1320589930, 0.1172721460, -0.0108079985, -0.1072616652, -0.0997052789, 0.1108180583, -0.0009241090, -0.1122136191, 0.0540351458, 0.0447165370, -0.1682869792, 0.0694041401, 0.1260964721, -0.1113199219, 0.0138513818, 0.0702532157, 0.0194734242, -0.0401185155, -0.1154654995, -0.0061837318, 0.1295436770, 0.0656444058, -0.1419229805, -0.0619588457, 0.0708163008, 0.0351753160, 0.0049713510, -0.1510992050, -0.0027627659, 0.0397303551, 0.0712663382, -0.0993244871, 0.0773200095, -0.0135514382, 0.0725105181, 0.1365107894, -0.0275025964, 0.0639942437, -0.0015611893, -0.1067454964, -0.0145244105, 0.0473477989, 0.0989808813, 0.0865237862, 0.0619346760, 0.1386494935, 0.1326424479, 0.0092374841, -0.0596612133, 0.1612573415, 0.1104053259, -0.0219796393, -0.1136406809, -0.0739055946, -0.0483368970, 0.0640038848, 0.0623885170, 0.0183175914, 0.0898628756, -0.0563256294, -0.0956899449, -0.0063861771, 0.1283187121, 0.0609826073, 0.0910375491, 0.0833411366, -0.0474367216, -0.0630182624, -0.1561778784, 0.1015151739, -0.0033009469, 0.0627198517, 0.0324029215, 0.0635554492, 0.0326377638, 0.0299177598, 0.0745362341, 0.0446722731, 0.0487989932, 0.0127657317, -0.0686177984, 0.0171526149, 0.1315778792, 0.0089541264, -0.0569929183, -0.1354237497, -0.0843924806, 0.0755510703, 0.0534333773, -0.1031669676, 0.0488736667, 0.1161607578, 0.0654056743, -0.0745234564, 0.0386889987, -0.0346433781, 0.1000433639, 0.1045443714, 0.0024197570, 0.0399041139, -0.1008687764, 0.0677581206, 0.0643523559, 0.0697192922, 0.0822849870, 0.0871091709, 0.0900645554, -0.0378826894, 0.0086248443, -0.0063968296, -0.1268909127, -0.0501870289, -0.0125524271, -0.0398047902, -0.0555616021, -0.0105966646, 0.0231197383, -0.0222909153, -0.0640702173, 0.0728975609, 0.1201696321, -0.0573907718, 0.0294057522, 0.0110760415, 0.0564745776, 0.0983702987, 0.0355363414, -0.1165349483, -0.0436027944, -0.0665765926, 0.0474581346, -0.0680581406, -0.1576980203, 0.1430261582, -0.0536930412, 0.0084242532, 0.0993507951, -0.0190846510, -0.0789670348, -0.1206576675, 0.1123408824, -0.0426846892, -0.0279755890, -0.0498468466, -0.0101675503, 0.0184185933, -0.0515278578, -0.0580404811, -0.1080897078, -0.0313199908, 0.0259174481, -0.0007283358, -0.0068329205, -0.0471153297, 0.0228034072, -0.1361561567, -0.0076812129, 0.0028793800, -0.0503933318, -0.1064903885, 0.1060118154, 0.0538613535, 0.0615565665, 0.0650665238, 0.0714969262, 0.0366315842, 0.1719269454, 0.1006848887, 0.0622603856, 0.0942379311, -0.0283085573, 0.0486115515, 0.0282881949, 0.0272312649, -0.0958013386, -0.0751328468, 0.1232110187, -0.0038495823, -0.0013344751, 0.1541470140, 0.1951961368, 0.0302444510, -0.0949443132, 0.2381206304, 0.1978188902, 0.0026058273, -0.0538505912, 0.0253869779, -0.0991513655, 0.0559864119, -0.1086981222, -0.1524996608, -0.1119449511, 0.1203052998, 0.0047816047, -0.1349442750, -0.1612228155, 0.1481048614, 0.0659795105, -0.1073998138, 0.1870376617, 0.0049317153, -0.2095063627, -0.1130551621, 0.1542001516, 0.0464775637, -0.0351818837, 0.0181967039, 0.0235501081, 0.0576191097, 0.0804299638, -0.0404394232, 0.0259159748, 0.2011498213, 0.0407296717, 0.0226639118, -0.0499239564, 0.1615084857, -0.0076328977, 0.0592043698, 0.0259709153, -0.0457788296, 0.1361825615, 0.1402156204, -0.0683441758, -0.0586778410, -0.0034034513, 0.0427663662, 0.0064831474, 0.0223227963, -0.0337126702, 0.0675380230, 0.1314274520, -0.0171574317, -0.0816275179, -0.0222827923, -0.2571467757, -0.1542169154, 0.0459339172, 0.0971202552, 0.0711802989, 0.0291465912, 0.1108786315, 0.0227761809, 0.0035594869, 0.0415601730, -0.0390128940, -0.0864080936, -0.0234808289, 0.0090671228, 0.0476296134, -0.0078399973, 0.1327919215, -0.0432103463, -0.0691136420, 0.1262899935, -0.0557099171, 0.0858545750, 0.0459795557, -0.0131903738, -0.0813678503, -0.1699505299, 0.0305394027, 0.0846244469, -0.0749702081, 0.1854302436, 0.2095679939, 0.0857344419, -0.1240044534, -0.0517774895, 0.2096298784, -0.0224217586, -0.0146123134, 0.0588788949, 0.0584852546, -0.1511287540, -0.0036563079, -0.0871162117, -0.2107659727, -0.1013644561, -0.0306411926, -0.0719175637, -0.1129916236, -0.0159598477, 0.1804529727, 0.1466206014, 0.0626791939, 0.0251593366, 0.1367816925, 0.0221104231, -0.1698242426, 0.1040345952, 0.1274581999, 0.0484246835, -0.1636548489, 0.0654143170, -0.0154431956, -0.1175325885, -0.0732264817, -0.0201731753, -0.0100464616, -0.0395732149, -0.0265990533, -0.0420674048, -0.0155221159, -0.0088599641, 0.0885768235, 0.0114476280, -0.1009698957, 0.1402236968, -0.0576178506, -0.0725365579, 0.0939575210, 0.0147941001, 0.0404094830, 0.0323286094, 0.0052108159, -0.1120910645, 0.0003352839, -0.0446938649, -0.1159431562, 0.0330654271, 0.0576747209, -0.0565998629, 0.0275657605, -0.0103556011, 0.0497229770, -0.0723589808, 0.0184796453, -0.0278392639, 0.0775300711, -0.0349236466, 0.0100679826, 0.0089893276, 0.0716968253, -0.1077394262, -0.0921924934, 0.0699103177, -0.0510287248, -0.0138470251, 0.0835284069, -0.0917730182, -0.1308145374, 0.0873367488, -0.0257406514, -0.0957359001, -0.0206514522, -0.0743430555, 0.0822860599, 0.1260555387, -0.1080305725, -0.0015477048, 0.1026943848, 0.0484967008, -0.1252436340, -0.0315333903, -0.0471800938, -0.0642640144, -0.2072091103, 0.1386567652, -0.0977880806, 0.0696273372, 0.0422070585, 0.0464810356, 0.0791451931, -0.0158783365, 0.1357247680, 0.0023394600, 0.0548355021, 0.0642520562, 0.0237380918, 0.0308031775, -0.0721202269, -0.0251898970, -0.0177282915, -0.0939225331, 0.0095439479, 0.0517655872, -0.0891615599, 0.0007518546, -0.0785508677, -0.0239344928, -0.0949875042, 0.0101978648, 0.1308802515, -0.0245537776, -0.0135382721, 0.0456389524, -0.1086666137, 0.0587222464, -0.0429067612, -0.1062167957, 0.1584495753, -0.0142146982, -0.1160458922, -0.0898672119, -0.0266217422, 0.0597345345, -0.0201563779, 0.0242718346, 0.1725167632, -0.0860202909, 0.0368994810, -0.0807749033, 0.0858916715, -0.0034078318, 0.0360466391, -0.0617867187, 0.0181225669, -0.1274926066, 0.0541007333, 0.0469388738, -0.0472390205, 0.0949869379, 0.0386352837, -0.1455774307, -0.0945574343, 0.0206483509, 0.0807673857, 0.0490994491, 0.0378114805, 0.0550459325, 0.0098941689, -0.0560421497, 0.0116893239, -0.1367659420, 0.1000442654, -0.0268212203, -0.0983672068, -0.0344478190, -0.0631384403, -0.0434478149, 0.1321523637, 0.0463283435, 0.1133670658, 0.0019363083, 0.0547715388, -0.0155880945, 0.0668754727, 0.0547255538, -0.0684464276, 0.0701770186, -0.0862531066, -0.0222543757, -0.0286306608, -0.0151924053, -0.1304925680, -0.0349700265, 0.0197599791, -0.0984709114, -0.0076895547, 0.0604337342, 0.0419514813, 0.1215349436, -0.0824430883, 0.0486388952, -0.0456216112, -0.0630182326, 0.1046771407, -0.0611357763, -0.0084146624, -0.1739209294, 0.1423254162, -0.0385893807, -0.0095041106, -0.0132539030, 0.1020137593, -0.0994785577, -0.1051746383, 0.0662209243, -0.0379507020, 0.0110093411, -0.0377538539, -0.0093530994, 0.0191896539, 0.0634670258, -0.0177773070, 0.1004907340, -0.0958396643, 0.0209648609, -0.0278650392, 0.0639499500, 0.0043401239, 0.0804578662, -0.0492341705, -0.0768060833, -0.0394702181, -0.0792779699, -0.0526615381, -0.0008788968, -0.0297084898, -0.1252748519, 0.0922733545, -0.0587679297, 0.0979154706, 0.0118855834, -0.0747596920, -0.0076541328, 0.1283717752, -0.0435689725, -0.0688842759, 0.0077930964, 0.0752523243, -0.1289989203, -0.0455215424, -0.1251236796, -0.0080210576, 0.0498614199, 0.0538752005, 0.0489055477, 0.0893109217, -0.0686151087, -0.0635080487, -0.0329835527, 0.0539778545, 0.0063160518, 0.0039781281, 0.0183909349, -0.0657866374, -0.0771207809, 0.0833613276, 0.0535992123, 0.1716028899, -0.1035404950, -0.1045989841, -0.0773907006, 0.0323497914, 0.1334053278, -0.0716974139, 0.1305779517, 0.0241712928, -0.0827007666, 0.0553196967, -0.0632001162, -0.0457653776, 0.0937090293, 0.0266266912, -0.0366792679, 0.1382219791, 0.0008469446, -0.0815912336, 0.0909675583, 0.0502058528, 0.0781301409, 0.0881064236, -0.0632032603, 0.0355452672, -0.0149761345, -0.0843038559, -0.0288824141, -0.0728164837, 0.0329843275, 0.0219285637, -0.0034511306, 0.0392751135, -0.0503894612, 0.0000913270, -0.0855671912, 0.0865186974, -0.0404845327, -0.0443814807, -0.0200755093, 0.0313406214, -0.0836697519, -0.0435244627, -0.0246416517, 0.0383148231, -0.0841431469, 0.0339474529, -0.0600647703, -0.0973308086, 0.0029134471, 0.0037268270, 0.0419534557, 0.0067582340, 0.0571998246, 0.0308305845, 0.0990241244, -0.1180471629, 0.1296919733, 0.0628573075, -0.0707406625, 0.0374538265, 0.0325094834, -0.0096541923, 0.0121166948, 0.0098911989, -0.0164040662, -0.1331036985, -0.0120444978, 0.1115438342, -0.0435677208, -0.1187712550, -0.0197398998, 0.1072562486, -0.0289846901, -0.0473027453, -0.0603006370, 0.0469850972, -0.0446090326, -0.1182382256, -0.0327545479, 0.1061091721, 0.1071528569, -0.0159641132, -0.0416759551, 0.0535444655, 0.0490151122, 0.0862828419, 0.0207504313, -0.1334642321, -0.0451291502, 0.0192097314, -0.0348433368, -0.1087527499, -0.1099246889, 0.0699464455, -0.0604642592, -0.1583236009, 0.0143202161, 0.0827740654, 0.0753309131, 0.0952494964, 0.0174070969, 0.0212628767, 0.0481914841, -0.0005522486, -0.0986492187, -0.0530765913, 0.0391910300, 0.0797257051, -0.0605887622, -0.0635214224, 0.0875634998, -0.1057247445, -0.0071252272, 0.0945747793, 0.0260868389, 0.1806488335, -0.0190974586, 0.1510392874, -0.1115180776, -0.0181943625, 0.1772387028, 0.0458032601, -0.0926897675, -0.0814706907, 0.0721426681, -0.0426514521, 0.0100840554, 0.1073593646, -0.0796789452, -0.0623575523, 0.0200759657, 0.0617410876, -0.0681554973, -0.0854532197, 0.1225992516, -0.0585066825, -0.0633962303, 0.0472954623, -0.1009120420, 0.1053142175, 0.0141607178, -0.0458012894, 0.0281342287, 0.1508240551, 0.0827746689, -0.0273539666, 0.0093162293, -0.0366162062, 0.0037006575, -0.0724304020, 0.1233068481, -0.1821152270, -0.1723950952, 0.0874558166, -0.0709427297, -0.1597713232, -0.1168425232, 0.0349715240, 0.0068502743, 0.0294909831, 0.0617973693, 0.0720508695, 0.0975987017, 0.0726032481, -0.0984043330, -0.0871409178, 0.0487155318, -0.0803551301, 0.1010873541, -0.0984605402, 0.1244308054, 0.0050232057, 0.0257136077, -0.0518497974, 0.0022430299, -0.0202263016, -0.0680661052, 0.0676507279, -0.0256688036, 0.0518057570, 0.0755722374, 0.0372681655, -0.0240332857, 0.1252758056, 0.0467441417, 0.0042918269, 0.0197213460, -0.1074935570, 0.0556062050, -0.0366371945, 0.0199390016, 0.0767096952, -0.1037605703, -0.0257030185, -0.0737695098, 0.1162309423, -0.0841155723, -0.0558969490, -0.0280695595, -0.0438807346, 0.0197565686, 0.0538400970, -0.0054296381, -0.0952961519, 0.0041815965, -0.0260441434, -0.0857348293, 0.1064208075, -0.0431922488, -0.0578383915, -0.0448986031, -0.0824887380, -0.0556181632, -0.0267129671, 0.0013430171, 0.0415143780, -0.0505180992, -0.0571130104, 0.1018401757, 0.1198702231, -0.0982013419, -0.0051332805, -0.0951384231, -0.0202960279, 0.0216046441, -0.0730738416, 0.0889835358, 0.0288276076, 0.0448824950, -0.0091560083, -0.0511894710, 0.1026653871, 0.0664647594, -0.0755798519, -0.1048105881, 0.0129334414, 0.0687472373, 0.0504369624, -0.0615545660, -0.0445240922, 0.0155783994, -0.0816550255, -0.1362750828, 0.0749184713, 0.0886105523, 0.1024099141, 0.0268956199, -0.0504497625, -0.0148148360, -0.0519432425, -0.1142032072, -0.0901973248, 0.0669687688, -0.1053444073, -0.0432855375, 0.0003407366, -0.0440163352, -0.0539409183, -0.0059565795, 0.0970406905, -0.0509137549, -0.0792027339, -0.0005737353, -0.0786566213, 0.1296538264, -0.0420696475, 0.0123574613, -0.0368662141, 0.0646812692, -0.0246788356, 0.0866323784, 0.1520083696, -0.0369674265, -0.1512549520, -0.0837536529, 0.0085254647, 0.1294127107, -0.0185057633, 0.0214779507, 0.0747498199, -0.0654649734, -0.0462601222, 0.0210108217, 0.1004482731, 0.0811802968, -0.0457550064, 0.0358847603, -0.0362808928, -0.1089316159, -0.0853447691, 0.0095371380, -0.0246042237, -0.0052292529, 0.1052150056, -0.1369093359, 0.0965583920, 0.1458540857, 0.1147872210, 0.0101096397, -0.0954471901, -0.0066634337, 0.1223337799, -0.0499668568, -0.0278311148, 0.0299756471, -0.1115128472, 0.0678750724, 0.0384865217, -0.1122726277, -0.0364735387, 0.1223354861, 0.0288517848, 0.0451993495, -0.0505388044, -0.0833283439, 0.0031086730, 0.0638628528, -0.0246513225, 0.0927472934, -0.1389462054, -0.0504105575, 0.0032451749, -0.1288070828, 0.0840485469, 0.0500957631, 0.0166077483, 0.0556673445, -0.0880375430, 0.0399679169, 0.0897880420, 0.0163578074, -0.0252288282, -0.0154308006, 0.0273058135, -0.0695641637, -0.0443396643, 0.0881451443, -0.0467449352, -0.1217764094, 0.0955514684, -0.0185843222, -0.0799987316, 0.1269577742, -0.0166085362, 0.1722173244, -0.0791465417, 0.1040913016, 0.0938135162, -0.0755269155, 0.0794120952, -0.0216557346, 0.0808405504, 0.0246012267, -0.0557084344, -0.0589268953, -0.0735472068, -0.0487501025, 0.0465286896, -0.0228117611, -0.0137011949, 0.0751711950, -0.0343707465, -0.0970903635, -0.0442950316, 0.0492658056, -0.0864082202, 0.0302585606, 0.0386507809, 0.1526822448, -0.0322489142, -0.0756036863, 0.0168527924, -0.0165051594, -0.0332836173, -0.0344311967, 0.0886164531, -0.0703087375, 0.0832595378, -0.0306546167, -0.0354748182, -0.0114822863, -0.0777813420, 0.0145013547, 0.1060907394, -0.0310330540, -0.0541547909, -0.0673169494, 0.0116408495, 0.0730093643, -0.0226096772, -0.0342788771, 0.0642031580, -0.0056264657, 0.0864529237, -0.1068741903, 0.1264322996, 0.0350502469, 0.0630503371, -0.0425486192, -0.0719429031, -0.0679992810, 0.0270022601, 0.0794385970, 0.0274575911, 0.0575040355, 0.0862378851, -0.0464158729, 0.0428833552, -0.0138651012, 0.1211970523, -0.0523064360, 0.0948898867, -0.1097563058, 0.0106331808, 0.0740861297, -0.0090795988, -0.0795202032, -0.1001796201, 0.0944024473, -0.0453508347, 0.0041076750, -0.1035121158, -0.0699609295, 0.1092748567, -0.0432032980, -0.0725422278, 0.0583321154, 0.0169403292, 0.0019081146, 0.0889067799, 0.0448681712, -0.0653328001, 0.0024145197, 0.0730284750, -0.0204470176, 0.0707176179, -0.0101639843, -0.0118575748, -0.0178698022, -0.0077745859, 0.0143259056, 0.0358656198, -0.0150939031, 0.0848977864, -0.1022548825, 0.0992733017, 0.0813781992, 0.1079711020, -0.0873323381, -0.0629766211, -0.0768597499, 0.1035855114, -0.0475204140, -0.0476674028, -0.0756088942, 0.0772425458, 0.0984048396, -0.0417330116, 0.0705327988, 0.1409975737, -0.0064119278, -0.0252446793, 0.0659726262, 0.0175152533, 0.0031418332, -0.0803213269, -0.0358997732, -0.0242340658, 0.0912755281, -0.0867093951, 0.1266774535, -0.0096991565, 0.0216489714, -0.0763319507, -0.1038143486, 0.0649130866, 0.0125270681, 0.0342154726, -0.0627865344, 0.0752202794, 0.0064923055, -0.0283483043, -0.1189849526, 0.0476581119, 0.0978624970, -0.0652939081, -0.0902835429, -0.0058201817, 0.1243828610, 0.0690940619, 0.1059786305, 0.0029125442, 0.0594175719, -0.0105461124, -0.1079157889, -0.0770531073, -0.0161312278, -0.0441517308, -0.0244653914, 0.0236908086, 0.0569757521, 0.0920402184, 0.1221206933, 0.0367797688, 0.0277606454, -0.0364448391, 0.0487313494, -0.1029446647, -0.1005654931, -0.0266650356, 0.0388775058, -0.1443254799, 0.0270835143, -0.0412050597, -0.0307821259, -0.0118004670, 0.1025076807, -0.0130601712, -0.1120913774, -0.1308288872, 0.0829942301, 0.0741775632, 0.1044877544, 0.0083932206, 0.0738678575, -0.0701239631, 0.0942149162, 0.0496402681, -0.1368465573, -0.0283220261, -0.0821404606, -0.1226127148, -0.1278255433, 0.0221534520, -0.0377274230, -0.0167502966, -0.0020859721, 0.0103354575, 0.0458335951, 0.0771945715, -0.1279629469, -0.0556896925, 0.0044773133, -0.0636824146, -0.0623051450, 0.0661080107, 0.0797601715, -0.0256285612, -0.0820937902, -0.0054503419, -0.0712699816, 0.1100124717, 0.0739849508, 0.0154317794, 0.0679922700, 0.0288567897, -0.0559009090, -0.0245835464, -0.1022579297, -0.0382593013, 0.1259197742, 0.0709461495, -0.0736155882, 0.0856201127, -0.0629383251, 0.1430931836, -0.0152043970, 0.0290372893, -0.0302301049, -0.0422877818, 0.0626939759, 0.0423926748, -0.1364625543, -0.0897556171, -0.1091441736, 0.0239225887, 0.0179980546, 0.0727504194, -0.0626814663, -0.0444307029, 0.0918419510, -0.0944487527, -0.0726966336, 0.0316828266, -0.0324685685, -0.0099579161, -0.0011710027, 0.0248214379, -0.0334762447, 0.1014176011, 0.0952071324, -0.0316019095, -0.0504397303, 0.0701899305, -0.0496753007, 0.0161901768, 0.0331359468, -0.0904925242, 0.1135506257, -0.0389578827, -0.1421932876, -0.0059312340, -0.0044112722, 0.1001013368, -0.0489645675, -0.0302986223, -0.1108542979, 0.0971251652, -0.0967050642, 0.0166800823, 0.1289236993, -0.1001679152, -0.0296689160, 0.0424299203, 0.0699356422, -0.0510449409, 0.1153907776, 0.1557633281, 0.0348655060, -0.0879925787, 0.1256501526, 0.1598742753, -0.0449933857, -0.0252884440, 0.0199596584, 0.0385079421, -0.1236048788, -0.1385178119, -0.1423545778, -0.1360933930, 0.0447723754, 0.2276809514, 0.0981168672, 0.0443427674, 0.0608142354, -0.0546276905, 0.0129163368, -0.0123768523, -0.0048403512, 0.0313431285, 0.0276543871, 0.1649768800, -0.1476546526, 0.1072260737, 0.0286192987, 0.1352831870, -0.0680118874, -0.1000120863, 0.0733752921, -0.0385383330, -0.0561819412, 0.1137879640, -0.0073064966, 0.0214761887, 0.1427383870, -0.0711514428, -0.0948102027, -0.0499403924, -0.0116592888, 0.1125405803, -0.0901859701, -0.0043514841, -0.0785335749, -0.0448919497, -0.0147322277, 0.0519058630, 0.1126019731, -0.0504394285, 0.2595791519, -0.0146259014, -0.1344297379, 0.1120388806, -0.1227788627, 0.0266696420, 0.0056149182, -0.0247595143, -0.0194173232, 0.1768708676, -0.2093014121, -0.0230670162, 0.0316200405, 0.1530156732, 0.0397002138, 0.0422785915, 0.1906991154, 0.2173227668, 0.0703671724, -0.0376513824, 0.0644375980, -0.1431316435, -0.0217359122, -0.1200034395, -0.0233957712, 0.0047942386, 0.0986131281, 0.1406806856, -0.0670837387, 0.0088076731, 0.2402495444, 0.0403983034, -0.0780590177, 0.1973291039, -0.1431115568, -0.3478637934, -0.0735611692, 0.3219341636, -0.0264925696, -0.1749840528, 0.1488283128, 0.0079167150, -0.1873831600, -0.1745795161, 0.0106132301, 0.2117122114, 0.0769394860, 0.1692336053, 0.0612912960, -0.0827425495, 0.2644505203, -0.0795737058, 0.0640003309, -0.1122791916, -0.1267429441, 0.0099315327, -0.0256429166, -0.1652433276, 0.1633554548, 0.0444511622, 0.2541763186, 0.0736774653, -0.0281635914, -0.1225698441, 0.0235621594, 0.0093446439, 0.0746113658, 0.0729311332, 0.0151577601, -0.2809427977, 0.0192457810, -0.1434836835, -0.0041032489, -0.0205932949, 0.0719549656, 0.0412808843, -0.0287816115, -0.0013585051, 0.1886407882, 0.0410821140, -0.0527689010, -0.0556355268, 0.0130577125, 0.0301324409, 0.1049460843, -0.0429895520, 0.0535765328, 0.1772877574, 0.0066309958, 0.0732911378, 0.0665812418, 0.0246919766, -0.1579807252, -0.0567592941, -0.0767544061, -0.0657876730, 0.0090527255, -0.0105804037, 0.0330069512, -0.1492278129, -0.0703329295, -0.0951898992, 0.1228509098, 0.1716697961, -0.2416376919, 0.0071378550, 0.0439138189, -0.0339445993, 0.0687173158, 0.1412188858, 0.0257594269, -0.0660738051, -0.0047135232, 0.0489679761, -0.0036500045, 0.0672778487, 0.1099731773, -0.0092855673, -0.0190563519, -0.0463769324, -0.0729283690, 0.0407731384, -0.1030594409, 0.0729445070, 0.0124741299, 0.0159532893, 0.0350255184, 0.0642835125, 0.0271447618, 0.0128591517, -0.1081043109, -0.0311524104, -0.0578597933, 0.0192871653, 0.0198260657, -0.0654828772, 0.0965207070, -0.0981788859, 0.0458647273, 0.1424599439, 0.0242188517, 0.0357012898, 0.0277283285, -0.0045521744, 0.0864827111, 0.0562127978, 0.0449182466, 0.1036190465, 0.1010598093, -0.0662082806, 0.0151397474, -0.0706272870, -0.0808082819, 0.0914043337, -0.0448021516, 0.0483390242, 0.0819733515, -0.1342990845, 0.0656625181, 0.0450281091, 0.0491715297, -0.0470438711, 0.1049899384, -0.0633082762, 0.0557593033, 0.0603355356, -0.1491025984, 0.0959219113, -0.0214115027, 0.1071801260, -0.0405807346, -0.0873998031, 0.0636772141, 0.0856885463, -0.0844683722, -0.0695127621, 0.0582275428, -0.0960898921, 0.0657772869, 0.1023220941, 0.0963772088, -0.0008003442, 0.0986928269, 0.0459724665, -0.0073160841, -0.0804729909, 0.1436790973, -0.1060841754, -0.0321742073, 0.0256967358, -0.0747894943, 0.0791033730, 0.1512929797, -0.0796461850, 0.0106085353, 0.1277692765, 0.0863463432, 0.1028298736, -0.1420289427, -0.0017979016, 0.0628160164, 0.0615358874, 0.0065666055, -0.0275933594, 0.0710904300, -0.0144973639, 0.1118498966, 0.0029981772, 0.0342066176, 0.0796755850, -0.0872061849, -0.0915920138, 0.0868879855, 0.0862551406, 0.0610003434, -0.0443878956, -0.0385611579, 0.1551438421, -0.0598100871, -0.1297617555, 0.0521964654, -0.1425120831, 0.0314335264, -0.0938844979, -0.0042085573, 0.1510608196, 0.0079666711, -0.0124663105, -0.0682847723, 0.0736134648, -0.1308445781, -0.0935497954, 0.0766324326, 0.1475381553, -0.0944716409, -0.0826567486, 0.0517869331, 0.0555205494, 0.1193945184, 0.0243624039, -0.0503897741, -0.0016298392, -0.0434376113, -0.1041011512, -0.0159926470, 0.0793718249, -0.0863240734, 0.0397035964, 0.0018482851, -0.0394586436, 0.1107517704, -0.0171349235, 0.0497882590, 0.1112969518, -0.0418455265, -0.0249525551, -0.0768895522, 0.0060799238, -0.0154261012, 0.0671639144, 0.0617494471, -0.1125439480, 0.0013929409, 0.0268495418, 0.0642645210, -0.0731321275, 0.0579472780, -0.0020607603, -0.0577287227, 0.1250317693, -0.0070604710, -0.1014233828, -0.0629707128, 0.0979349166, 0.0333422199, 0.0844530165, -0.0522664227, 0.0946099088, 0.0238698926, -0.0126590524, -0.0411821716, -0.0931574926, 0.1457152665, -0.0427235030, 0.0062481305, -0.0263195485, -0.0569193847, 0.0677259862, 0.0881811380, -0.0135290241, 0.0782248750, -0.0194705948, 0.0882457122, 0.1046044454, -0.1637188941, 0.1654591113, -0.0522922054, -0.0150803570, 0.1503385603, -0.1109527498, -0.0632101893, -0.0939364955, -0.1387404799, 0.0384385921, 0.0831141397, -0.0011577504, 0.0439972766, 0.0270988345, -0.0023359149, 0.1282802522, -0.0867195204, 0.0363434926, 0.0933757052, 0.0925087184, 0.0026701079, -0.1299309582, 0.0795969218, -0.0283996742, 0.0020038914, 0.0759769827, -0.0430812351, 0.1589492410, -0.0971640050, 0.1399558336, 0.0189785995, -0.1065315902, 0.0681065619, -0.0556013696, -0.0211590957, -0.0854644999, 0.1018948555, 0.0524643436, 0.0009453694, -0.0230366960, -0.0796277449, 0.0974380970, 0.0556296743, 0.1015708372, 0.0294798631, 0.0824215189, 0.0271738432, -0.0589610301, 0.1020108238, 0.0404043794, -0.0715805441, 0.0191968158, -0.1018904969, 0.0843037665, 0.1501524597, -0.0186189394, 0.1372240633, -0.0988424718, -0.0964093208, -0.0445987545, -0.0648504272, 0.1621970832, -0.1041064933, -0.0893253461, -0.0556598604, 0.0113136787, -0.0159397684, 0.0690159649, 0.0280553177, 0.0491247736, -0.0177498385, -0.0874496102, 0.0813914835, -0.0968020633, -0.0394629277, 0.0350952186, -0.0937754065, 0.0098484652, 0.0483214259, -0.0809628740, 0.0284648407, -0.0384082682, -0.0323144533, -0.0295903925, 0.0549388491, -0.0421574675, -0.0831267536, -0.0889101177, 0.0835447535, -0.0629658028, 0.0127754323, 0.0686273724, 0.0148070706, 0.0526776314, 0.0376973823, -0.1060870066, 0.0118612153, 0.1012104154, 0.0074762776, -0.0369225033, 0.0819926932, 0.0069073359, -0.1414911598, -0.0958093032, 0.0596234240, -0.0883303210, -0.1481702626, -0.0160295386, 0.0829210877, -0.0986305848, -0.0014600224, -0.0249209106, -0.0182613693, 0.1080400944, -0.0146084772, -0.0469955765, -0.0880059525, 0.0784236044, 0.0185026005, -0.0154079711, 0.1335911304, -0.0627933741, -0.1004099771, -0.0747456178, 0.0705399513, 0.1489185095, 0.0722446218, -0.0907333419, -0.0503530242, -0.0886743367, 0.0994409546, 0.0404576696, 0.0221534874, 0.0221383125, -0.0295065418, -0.1387127787, 0.0625625104, 0.0355304219, 0.0560410470, 0.0843934193, 0.0968753844, 0.1154709831, 0.0295206159, 0.1205453724, -0.0432703160, -0.0735904872, 0.1477872580, -0.0389587581, 0.0429619700, 0.0562727079, -0.1425507218, -0.0047207754, 0.0300187115, -0.0896121934, -0.0365726240, 0.0933705345, -0.0459317863, -0.0927422643, 0.0454247594, -0.0824184492, 0.1126515567, -0.0482962355, 0.0127671938, -0.1332012266, 0.1451202035, 0.0663937703, 0.0939185321, -0.0209524650, -0.1266163588, -0.0289157387, -0.1309389919, -0.1469436437, -0.0667253435, 0.0795633569, -0.0716343150, 0.0811379105, 0.0713044107, 0.2562054098, -0.0458310843, 0.1519780904, 0.0950753018, -0.0642075986, 0.0550662056, -0.0672395378, 0.0401134677, 0.0812515020, -0.0160879809, -0.1533635259, -0.0217481460, 0.0555863269, -0.0225130543, -0.1377206445, -0.0885958970, -0.0351557918, 0.0830636919, -0.0614737086, -0.0522894561, -0.0799507722, 0.0985278487, 0.1106127203, -0.0362797715, 0.2036361396, 0.1622843742, 0.0316722319, -0.0925631374, 0.0939998105, 0.1492539644, -0.1688026935, 0.0108016720, -0.0071061263, 0.1522978097, -0.0964418203, 0.0726621896, 0.0568691492, -0.1062425077, -0.0041764160, -0.0495908111, -0.0412284210, -0.0786197335, 0.0679788813, -0.1145740822, 0.1157897264, -0.0368550420, -0.1789941192, 0.0157056227, 0.0313157439, 0.0851715952, 0.0147467945, 0.0849875733, -0.0980156809, 0.0770549700, 0.0477845408, 0.0177356210, -0.0659942031, -0.0673450232, -0.0318873674, 0.0829048753, -0.0022082410, -0.0135118552, 0.0311812740, -0.0237170868, -0.0293531809, 0.0633784607, -0.0327133425, 0.0277316496, -0.0189846065, 0.0198910981, 0.0590963848, -0.0792438686, 0.0127791138, 0.0758295134, 0.0921409354, 0.1081558317, 0.0290900357, 0.0133729270, -0.0751270428, -0.0380337536, 0.0996623114, -0.0185569953, -0.0963432565, -0.0388826728, -0.1005568653, -0.0072271531, 0.0872631595, -0.0326275080, 0.0035431574, 0.0175016280, -0.0908550620, -0.0998650640, 0.1143371686, -0.0917214900, 0.0294977743, 0.0858373418, -0.0531992465, 0.0877484158, -0.0668683425, 0.0491127931, -0.0140986042, -0.0392191038, 0.0680865124, -0.0851550475, -0.1412220597, -0.0334032290, -0.0658061206, -0.1341142207, -0.0406363793, -0.1123642176, -0.0918648019, 0.0046908897, -0.0324325040, 0.0529509746, 0.1270099729, -0.0497291982, 0.0585741661, -0.0058674058, -0.1069976464, 0.1189621165, 0.0166549087, -0.0429771282, 0.0106536699, -0.0417415015, -0.1095889062, 0.1082694232, -0.0455296524, -0.0440775678, 0.0758916289, -0.0366710648, 0.0448270664, 0.1167998835, 0.1024897099, -0.0646604970, 0.0450879857, 0.0685962960, -0.1009094268, -0.1207756549, -0.0435117967, -0.0826061592, -0.0245573483, 0.0297213607, -0.0770251900, 0.0410189331, -0.0973250642, 0.0750470608, -0.1104383543, -0.0095723849, -0.0908268988, -0.0022084604, 0.0313907377, -0.0178560652, 0.0923714042, 0.0501060933, 0.0250075553, 0.1014237478, 0.0884905234, 0.0091145430, -0.0444161221, 0.0044638645, -0.0670243651, -0.0540730394, 0.0860732123, -0.0431822762, -0.0285926089, -0.0635804087, 0.0714013055, 0.0744794086, 0.0056133047, 0.0203629956, -0.1482835859, -0.0365753211, 0.0269326959, -0.1384843886, -0.0434442498, 0.1146085560, 0.0025580123, -0.1236045510, 0.0547443666, -0.0536737517, 0.0435605869, 0.0150646558, -0.0283619482, 0.0842771307, 0.0015833501, 0.0005801000, -0.0133184334, 0.0540012345, 0.0587013513, -0.0058629261, -0.1771865636, -0.0360106565, 0.0160913300, -0.1093819216, -0.0652035847, 0.0041969549, 0.0533367284, -0.0041025137, -0.0271121096, 0.0222856123, -0.0565033481, 0.0259495135, -0.0548063666, 0.0022498837, -0.1785807312, -0.0272070803, 0.1334466189, -0.0478063971, -0.0666873232, -0.0208948720, -0.0386318304, 0.0153809721, -0.0345427059, 0.1491827816, 0.0208965503, -0.0063854703, 0.0378592908, 0.0278673172, 0.0183981657, 0.1406763792, 0.0428472534, 0.0332964063, -0.0345432349, -0.0444421843, -0.0674014613, -0.0576638393, -0.0609184988, 0.0872215182, 0.0697411373, 0.1588204205, -0.1094397455, -0.0156972092, -0.0367245004, 0.0347572900, -0.1091385335, -0.0113083366, 0.0782516450, -0.1091973260, 0.0393719114, 0.0137370024, 0.0478580408, 0.0985638425, -0.0208444670, 0.0808658302, 0.0892118439, -0.0953032449, -0.0018084797, -0.0170648899, 0.1050269529, -0.0374320596, 0.0057228273, 0.0168670174, -0.0751465783, 0.0608327389, -0.0091033755, -0.0426716693, -0.1228651181, -0.0797618032, 0.0475252755, -0.0629097670, -0.0192744266, -0.0557887778, -0.0152546242, 0.0476012491, -0.0120583437, -0.1038897783, 0.1515158862, -0.0570722297, 0.0628677979, -0.0426398143, 0.0038423883, -0.0530063808, 0.0616952553, -0.0641208291, -0.0922298282, -0.0294922516, 0.0119418362, 0.1084925458, -0.0221581887, 0.1112641171, 0.0938864276, -0.0260570981, 0.0546619222, -0.0624449886, -0.0566392913, 0.1352343112, -0.1141234264, -0.0184518322, -0.1040025428, 0.0627282336, 0.0207952764, -0.0202534050, 0.1024218500, -0.0622418448, -0.1211853176, 0.0398778319, -0.0506261177, -0.0656192377, -0.1343888193, -0.1038842201, 0.1278205365, -0.0740022361, -0.0360550769, 0.0761716887, -0.1481567919, -0.1218712255, -0.0636275634, -0.1212190613, 0.0986903831, 0.0861217380, 0.0551025458, 0.1038080379, 0.0566926524, 0.0372284688, 0.1165253296, -0.0291323923, -0.0485229082, 0.1066543832, -0.1166260764, 0.0710165724, 0.0585776977, -0.0664852113, 0.1736519635, -0.0072882767, 0.0847421512, -0.0378297083, 0.0254711043, 0.0201106779, -0.0470135361, 0.0247462578, 0.1105742902, 0.1003388986, 0.0093609709, 0.0554671250, 0.0297718477, 0.0815392062, 0.0170876142, -0.0538702346, 0.0405145101, -0.0551611483, -0.0453737192, 0.0900799409, 0.0353874043, 0.0267738700, 0.0503494442, -0.0698248222, 0.0861624256, -0.0075358246, -0.1061177626, 0.0050437339, 0.0231231116, -0.1536597162, -0.0601273850, -0.0413634442, -0.0148316044, -0.0018855645, 0.1450641602, 0.0905117840, -0.1043231189, 0.0275696646, -0.0028039385, 0.0514344499, -0.0030957432, -0.1302590519, 0.0564112626, 0.0156248845, 0.0349619649, 0.0132697914, -0.0054650642, -0.0908478573, 0.1004746482, -0.0044583147, -0.0951738805, -0.0808798969, 0.0041310270, 0.1088308692, -0.0124056963, 0.0248600859, -0.0618922226, -0.1161682680, 0.0400568359, -0.0112370625, 0.1214260831, -0.0995896235, 0.0138232689, -0.0965928957, 0.1282962114, 0.0534195304, -0.1369498223, 0.0876844749, -0.0073916526, -0.0678324103, -0.0306848753, -0.0996737480, 0.0586391985, 0.1070120111, -0.0420954600, 0.0746479630, 0.0866799951, -0.0040982235, -0.0439515822, -0.0682216212, 0.0596723631, 0.0329975858, -0.0921743289, -0.1079006791, 0.0762725174, -0.0081985258, -0.1125576571, -0.0928633064, -0.0363703296, 0.0609300770, -0.1047324836, -0.1018508375, -0.0879014432, 0.0170294121, 0.1106199324, 0.0212333761, 0.0259281807, 0.0711298510, -0.0771213695, -0.0263160318, 0.0146901598, -0.0623535961, -0.0826622099, -0.0533752516, -0.0884293392, -0.0152169615, 0.0161399636, -0.0095801950, -0.1552964151, 0.0639917776, -0.0152237853, 0.0918450803, 0.1149879247, 0.1386311650, -0.0269011278, 0.0165628698, -0.0780501440, 0.0687906742, 0.0538732335, 0.0703726783, 0.0577675216, -0.0592871681, 0.0423701145, 0.1089600995, -0.1374716461, -0.0113544911, 0.0911822468, 0.0523580201, 0.0515251756, 0.0500738211, -0.0834143385, 0.1179227903, 0.1066054925, -0.0559025779, -0.0626419112, -0.0942801759, -0.0258960053, -0.0876701921, -0.0309137292, -0.0930554420, -0.0091580329, -0.0504102781, -0.1130085215, -0.0218502749, -0.1073503420, -0.0235964488, 0.0597293787, 0.1301682591, 0.0543306097, 0.0341384709, 0.1524031758, -0.0944803506, 0.0762710869, 0.0404705927, 0.0202132389, 0.0451198332, 0.1103916243, 0.0485346541, -0.0248891488, -0.0020795474, -0.0481629558, 0.0647120252, -0.1039544418, -0.1381014436, 0.0147690242, 0.0530358516, -0.0739626959, 0.1332413852, -0.1708992273, -0.0714643598, 0.0974568799, 0.0818538517, -0.1210125089, -0.0233361237, -0.0965199471, 0.0081588281, 0.0345398337, -0.0868360698, -0.0360540114, -0.0377055742, 0.1385535598, -0.0548325889, -0.0225665439, 0.1717832983, 0.1642291844, -0.0911791325, -0.0508462563, 0.1111128405, -0.1017550826, 0.0813991502, -0.0113579109, -0.1022563726, 0.0577712506, 0.0526490584, -0.0358756110, 0.0217261799, 0.0956013873, 0.0375410095, -0.0522466823, 0.1014763042, 0.1317407638, 0.0064690406, -0.2272462547, 0.0825053230, 0.2040219903, -0.0489153862, -0.0111586573, 0.1380701810, -0.0936070383, -0.1085844338, -0.0690097660, 0.1243283078, 0.0496379770, 0.1019398570, 0.0846791416, 0.0638002306, -0.1065753698, 0.0800068155, -0.0438017249, 0.1194703579, -0.0921491832, -0.2240459174, -0.1112835854, 0.0929129124, -0.1560504436, 0.1491807699, 0.1265039891, -0.0112150656, 0.1129302606, -0.0241851564, 0.0260669831, 0.1840533316, -0.2652499378, -0.1164732948, 0.0768259391, -0.0127008930, 0.0488988012, -0.0880488306, -0.2786256969, 0.0393803976, 0.2611568272, -0.2761213481, -0.0167090409, 0.0121548828, 0.1584775895, 0.0144018959, -0.0749773011, 0.3116499484, 0.2276139110, -0.0830279812, -0.0095441537, -0.0789222196, -0.0635296628, -0.1291337758, -0.0514268875, -0.0274880566, 0.1334895790, 0.1152124926, -0.0113124121, 0.0189288016, 0.1507357508, 0.0348410122, -0.0243227407, -0.0272031706, 0.1523086578, -0.0968767628, -0.2545527220, 0.0193598960, 0.2572099566, -0.0801484436, -0.1096790433, 0.0379345529, -0.1929348558, 0.0162524339, -0.0136544509, -0.0365294851, 0.2888036668, 0.2760173678, 0.2205782384, 0.0487107188, -0.1167678908, 0.1625199765, -0.2780537605, 0.1402404904, -0.0267934706, -0.3815148473, 0.0072719310, -0.1072937921, -0.0894868448, 0.0914573967, -0.0367561206, 0.0290654078, -0.0148233892, -0.0709688514, -0.1252458394, -0.1711815149, -0.1115124747, 0.0826220363, -0.2176082283, 0.0363295861, -0.0444514342, 0.1174977645, -0.1719769388, -0.0656904653, -0.0152405743, 0.0346433744, 0.0789322555, 0.0567191616, 0.0741464943, 0.0191023294, -0.0986022428, 0.0300877448, 0.0761958659, -0.1009557024, 0.0069269296, -0.1641217619, -0.3064822257, 0.0057998686, 0.0278769266, -0.0434448756, -0.1844333857, 0.0680951178, 0.1349151731, -0.0964976773, -0.1295572519, -0.1530860811, 0.0088732829, -0.0682889000, -0.1022248119, 0.0385932401, 0.0032863882, -0.0227556322, 0.0411205813, -0.0279707853, 0.3003831208, -0.2186858803, 0.0644273832, 0.0027447983, -0.0418632552, 0.1605789214, 0.2105642557, -0.0871874839, -0.1440516114, -0.0741399303, -0.0414805450, -0.0790214092, 0.0616323799, 0.1300185770, -0.0447829291, -0.0260316096, 0.0508526824, 0.0316145532, -0.1631845385, -0.0846593231, -0.0263790265, 0.1227065474, -0.0541370697, 0.0286794752, 0.0940048546, -0.0019615737, 0.0092339870, 0.0094480086, 0.0865905285, -0.0482120104, -0.0461112857, 0.0205246415, -0.0469252802, -0.1025918275, 0.1195282191, 0.0466588512, 0.1446404010, 0.0345340893, -0.0979746059, -0.0667370260, 0.0376465321, 0.0932821035, -0.0288063344, 0.0183858499, 0.0430720076, -0.0522751287, 0.0034102027, 0.0121964542, 0.0509713218, -0.1022026688, 0.0769101754, 0.1148853973, 0.0733531713, 0.0927464887, -0.0785823986, 0.0480912477, -0.1194786876, -0.0967260674, 0.0303448439, 0.0012126490, -0.0246425960, -0.0767193437, -0.0064252359, -0.0250220150, 0.0300983898, -0.0954276994, 0.0876611173, 0.1023747623, -0.0932593122, 0.0503371768, -0.0631634966, 0.0272802617, -0.0399613939, -0.0570870861, 0.0953517631, 0.0566363484, 0.0450708531, -0.0999877751, 0.0183701143, -0.0271145534, -0.0182490572, 0.1217458993, -0.0281262975, 0.1329725832, -0.0278705973, -0.0439651720, 0.0395446867, 0.0011284088, 0.0360409096, 0.0680553541, -0.0354770795, -0.0284996852, -0.0160736945, -0.0109181860, -0.1664234400, -0.0094596110, 0.0170652866, -0.0538635999, -0.0172180962, 0.0477313399, 0.0485499315, 0.0271008816, -0.0272689480, 0.1079306304, 0.1284310818, 0.0264455359, 0.0205041021, -0.0361002013, 0.0523443334, 0.0215883125, 0.0080677904, 0.0436330475, 0.0688626692, -0.0807608292, 0.0479920208, 0.0334752686, -0.0955083147, 0.0698863789, -0.1153146327, -0.0130223222, -0.0541099533, -0.0724657923, 0.1036821008, -0.0768371373, -0.0107167456, 0.0263306554, 0.0741881877, -0.0608721897, 0.0966010168, -0.0627874285, 0.0221277140, -0.1103749350, 0.0564995259, -0.0427478626, -0.0056189061, -0.0434668474, 0.0093183927, -0.0321838669, -0.0973493457, 0.0986652300, -0.0716489404, 0.0047792373, 0.1300228238, 0.0317687616, -0.0129247149, -0.0301055498, 0.0126339132, 0.0096720830, 0.0763263032, -0.0299552046, 0.0821104050, 0.0309590735, 0.0065926756, 0.0443213582, -0.0502715334, 0.0780596137, 0.0973000452, -0.0774065778, -0.1235395074, 0.0880386308, 0.0458312966, 0.0780114681, 0.0418881737, 0.0255387388, 0.0396594405, 0.1131453738, 0.1094852164, 0.1150362119, -0.0085818954, -0.0577563122, 0.0926094577, 0.0288906731, 0.0792052001, -0.0532225259, -0.0157822780, -0.0070376657, -0.1230365783, -0.1038454100, 0.0656197891, -0.0374039002, 0.0514498353, 0.0157792810, 0.0100260815, 0.0722040087, 0.0024672118, 0.0065530841, 0.0394754149, 0.1186282560, -0.0369594321, 0.0536138713, -0.0208166651, -0.1015801951, 0.1212620065, -0.1288098842, -0.0188660100, 0.0941294357, -0.0439539142, -0.0625343323, -0.0144748269, -0.0279723331, -0.0730111003, -0.0044042547, -0.0567007363, 0.0171134509, 0.1060398296, -0.0387981981, -0.0083895093, 0.0956525728, -0.0274692811, -0.0830212831, 0.0133674238, 0.1101154909, 0.0214488842, 0.0369299687, 0.0063040704, -0.0669407174, 0.0200266857, -0.0226235874, 0.0967848226, 0.0470737256, 0.0797767639, -0.0025721274, -0.1832884997, -0.0329957604, -0.0988094211, -0.0570762753, 0.0265929475, 0.0277543757, 0.0590224937, 0.1078687832, 0.0546583571, -0.0540162548, -0.0555357412, -0.0136935869, 0.0470726565, 0.1011082008, 0.0023948967, -0.0199824981, 0.0435849726, -0.0149044227, -0.1223993897, -0.0790610984, -0.0258679204, -0.0199038424, 0.0226698667, 0.0454753861, -0.0143345520, 0.0476837493, -0.0369312167, -0.1063414961, 0.0844479203, 0.0295338649, 0.0403250121, 0.0895104185, -0.0210005753, -0.1108199209, 0.0332820080, -0.1321599334, 0.0147087881, 0.1495998800, -0.1001527533, -0.0863734186, 0.0543774776, -0.0659306869, -0.0156779569, -0.0670297518, 0.0544172935, 0.0873219520, 0.0437903740, -0.0283511020, 0.1063839719, -0.0498232245, -0.0245810673, -0.0140379192, -0.0129017048, 0.0754636005, -0.0360387154, -0.1405852437, 0.0422221869, -0.0200303067, -0.0859465003, -0.0178665742, 0.0811720267, 0.0032289557, 0.0391240157, -0.0603926033, -0.0041360687, 0.0971388295, 0.0271063261, -0.1191732883, 0.0191205908, 0.1855583042, 0.0413481072, 0.0289356131, 0.0483714789, -0.0718445182, 0.0691249371, 0.0427606367, 0.1198619530, -0.0646205619, 0.0669633821, -0.0708854422, 0.0253570732, -0.0341840237, 0.0273462161, -0.0259084646, 0.1369414181, 0.0494205430, 0.0534488596, 0.0235273894, 0.0101875290, 0.0777434334, 0.0501760989, 0.0045042844, 0.0458851159, 0.0902586728, 0.1279415041, -0.0102147451, -0.1423324943, 0.0067781936, -0.0080592511, -0.0822323337, -0.0194567088, 0.0361675397, -0.0587899797, -0.1080996543, 0.0870988742, -0.1090192795, -0.0873007327, 0.0128503786, 0.0697550401, -0.0217401572, 0.0427400209, 0.0779146850, -0.0393471457, -0.0604598187, 0.0329028331, -0.0114896502, -0.0404965691, 0.0449956246, -0.0363793299, -0.0013547344, -0.1127477586, -0.0065595633, -0.0472749025, 0.0262193829, -0.0134373661, 0.1038387716, -0.0463575907, -0.0403937958, 0.0654115602, 0.1213377118, -0.1042802781, 0.0892664641, 0.0144681698, -0.0932924077, 0.0453817360, -0.0519103780, 0.0029848516, -0.1201584041, 0.0775473565, 0.0230570249, 0.0110826008, -0.0691945031, 0.0203785989, -0.1373935491, -0.1547680646, 0.0180928912, 0.0104232114, -0.0442229770, 0.0866143778, 0.1381646097, -0.0731842890, -0.0123085612, 0.1444098204, 0.0991494060, -0.1166697517, 0.0831934214, 0.1319070607, 0.0548833758, 0.0369405374, 0.0521471426, -0.0073981695, -0.0350836627, 0.0111578731, 0.0746078566, -0.0249507092, 0.0688196719, -0.0262241587, 0.2319580168, 0.0251835212, 0.1085117310, 0.2724724412, 0.0017985395, 0.0780323669, 0.0513139702, -0.0358475260, 0.0686704516, -0.1395247579, -0.0438438170, -0.0701053068, 0.1074918285, -0.0831064805, 0.1362480521, 0.0038129613, 0.0333799459, 0.0177783202, -0.0498800203, 0.0646482930, -0.1437221318, 0.0432620794, 0.0497189797, -0.0893247724, -0.0262892172, -0.0196368787, 0.1638683826, -0.1451985687, 0.0258845445, 0.1061547026, 0.1251891553, 0.1512778699, -0.0022716713, 0.0245261844, 0.0840997323, 0.1141712293, -0.0031279856, 0.0854156241, 0.0911506116, -0.1023727506, -0.0488751568, -0.1568398178, -0.0744617060, 0.0467288680, -0.0722052008, -0.0130343810, 0.1162004992, 0.0605528057, -0.1089557111, -0.0329287797, -0.0385874882, -0.1163568869, -0.1324325204, 0.0159317926, 0.0234176312, 0.0264709294, -0.0583981350, 0.0116100935, -0.0800270587, 0.0069312998, -0.0336405709, -0.0546131544, -0.0234254226, -0.0414517447, 0.0343285464, -0.0676814392, -0.0785397142, -0.0281614531, 0.0191782508, -0.0972478911, -0.0383805074, 0.0925402269, 0.1082423776, 0.0025684214, -0.0522286594, -0.0436869860, 0.0451996550, 0.1280881613, -0.0571844950, 0.0346666984, -0.0000892583, -0.0895212516, -0.0184947420, -0.0120476522, -0.1242028400, 0.0897310898, -0.0256916322, -0.0483415835, -0.1263718754, 0.0821337551, 0.0793204829, 0.1231725290, -0.0629669651, -0.0030462081, 0.0487626605, 0.0296618827, -0.0952228457, -0.0978243873, -0.0855924487, -0.0638730451, -0.0047594793, 0.0665783510, -0.0922716558, 0.0607866421, 0.0383444354, -0.0741505176, 0.0841383711, -0.0711233839, -0.0323715173, 0.0037645288, -0.0730324984, 0.0501126125, 0.1078995168, 0.1027895957, -0.0693920106, -0.1239412576, 0.0915993080, 0.0326013155, -0.0945191607, 0.0068566361, -0.1233196035, 0.0313507318, 0.0379377790, 0.0368257239, -0.0816737488, 0.1081214696, -0.0004348030, 0.0703579560, 0.0372066647, -0.0857284293, -0.1575100273, 0.0738996491, 0.0957240835, -0.0512185358, -0.0962193385, 0.1176685989, 0.0351150297, 0.0676799566, 0.1676188558, -0.0643553659, -0.0403655432, 0.0372617245, 0.0616861954, -0.1249307394, -0.1310263723, 0.0388332419, -0.0422916301, 0.0743128806, -0.0088764727, 0.0114310468, 0.0530080386, 0.0001387719, -0.0227347724, 0.1101420447, -0.0138640013, 0.1587058753, 0.0151931196, 0.0350147337, 0.1118420139, -0.1537106186, 0.0699771792, -0.0978707373, -0.0710635558, -0.0707462877, 0.0280683208, 0.0346621983, 0.0935596898, 0.1049228758, 0.0648531765, 0.1028786451, -0.1004313380, -0.0651916340, 0.0462899543, -0.0895313844, 0.0758559331, -0.0416654162, 0.0666591674, -0.0136183016, 0.0147299729, 0.0641263425, -0.0546463989, 0.0289171804, -0.0787495524, 0.0590652041, 0.0128594236, -0.0678394809, 0.0713441223, -0.0730120763, -0.0972042605, -0.0131648891, -0.0893711746, 0.0471851006, -0.0237976015, 0.0573544838, -0.0522208661, -0.0169818383, -0.1354109049, -0.0524538644, -0.1261442155, -0.0334981047, -0.0646553114, 0.1326297373, 0.0858227313, -0.0030838258, 0.0224083159, 0.0502025299, 0.0652989745, 0.0667172968, -0.0116251223, -0.0186190400, 0.1057867929, 0.1668449491, -0.0165840350, 0.0942391306, -0.0291434024, -0.0554089025, -0.0422511846, -0.0207359716, -0.1439405829, 0.0058919275, -0.0004658291, -0.0391180217, -0.0567831472, -0.1615437567, -0.1105548218, 0.0370537899, 0.0610734299, -0.0474698246, -0.1092671156, 0.0791454539, -0.1194899380, -0.0192903876, 0.0623047575, 0.0709418207, -0.1111793518, -0.1345483214, 0.0796910748, -0.0164626073, -0.2051253021, 0.0709125847, 0.1306603849, -0.1090014428, -0.0236138515, -0.0927730426, -0.0957406238, 0.0898004398, 0.0056175273, 0.0273774341, -0.0185685419, 0.0805326626, -0.0191707965, -0.1022126153, 0.0186589099, 0.1178304926, 0.0649361461, 0.0819920227, -0.0897871479, 0.0010873083, 0.0638698637, -0.1546077877, 0.0724184066, 0.0139082754, 0.1082938686, 0.0240976941, 0.0677439496, 0.0914819017, 0.0557208098, 0.0300712399, 0.0073591829, 0.0582963377, -0.0612492152, 0.0521671996, -0.0496662520, 0.0268845595, -0.0736519694, -0.0400407799, -0.1109800860, -0.0286104288, -0.0377766155, -0.0194440149, -0.0707179010, 0.0846612081, 0.0209787879, -0.0086830584, -0.1203126609, -0.0962354466, -0.1060539857, 0.0149626248, -0.0985819027, 0.0944767743, -0.1047569513, -0.0891924948, 0.0266482700, 0.0766158104, -0.0677299947, 0.0367577523, -0.0626942888, -0.1083847061, -0.0853510350, -0.0671132803, 0.0581702925, 0.0143304970, -0.0239898115, -0.0802222267, -0.0479030311, 0.1412629932, -0.0455600955, -0.0741769373, -0.1008777171, 0.0516668819, -0.0305802952, 0.0131129669, 0.0075540543, 0.1149132699, 0.0600143075, -0.0720903575, -0.0632165372, 0.0095191635, -0.0270370338, -0.0612989739, 0.0463391878, 0.0040557599, -0.1341534853, 0.0091765188, -0.0192234013, -0.0072298557, 0.0811498016, 0.1017551050, 0.0290536694, -0.0467838496, 0.1218757555, 0.0397163145, -0.0575457886, 0.0028512420, -0.0745918676, -0.1314535290, -0.0015875215, 0.0711782202, -0.1029790118, -0.0271238014, 0.0609282739, -0.0739170983, -0.1006860733, 0.0074404045, -0.1312285513, 0.0812257826, 0.1006863415, -0.0782082304, -0.1169369370, 0.0378459729, -0.0687318221, -0.0366938375, -0.0870804489, -0.0579842590, -0.1146722361, -0.0847257078, 0.0494007207, 0.0896606147, -0.0172412675, -0.0389875397, -0.0537839271, 0.0541033968, -0.0104288049, 0.0310736764, 0.1597422212, -0.0015450396, 0.0647011176, -0.0105693145, -0.1606466770, -0.1208377033, -0.0185193717, 0.0839684308, -0.0202300027, 0.1080713198, 0.0566035546, -0.0164282452, 0.0410417765, 0.1068036556, 0.0713768601, 0.0427743867, -0.0451668017, 0.0721942335, -0.0067799422, 0.0826356262, -0.0420290641, -0.0919086561, -0.1075587794, 0.0927261114, 0.0189690515, -0.0584678687, -0.0794728026, 0.1020798832, -0.0813027099, -0.1600396931, -0.1073679402, -0.0112260189, -0.0249245930, -0.0042104824, 0.1172379032, -0.0427983738, -0.1650470942, 0.0361480638, -0.0539355911, 0.1618636996, 0.0295419376, -0.0206313320, 0.0823930204, 0.0155445440, 0.0444906317, -0.1105343550, -0.0881391242, 0.1097474098, 0.0999706239, -0.0133785931, -0.0828972459, -0.1918436736, -0.1755353659, -0.0155806793, 0.0197684281, -0.0106936283, -0.1109056920, 0.0070953588, -0.0202469844, -0.0015260233, 0.1381389201, -0.0462799370, 0.0429063439, -0.0057204803, 0.0733880103, 0.0388166718, -0.0118630696, 0.0392080434, 0.1458029598, 0.0269105006, -0.1390627027, 0.0863438919, 0.0636447147, 0.0536902025, -0.0716336742, 0.0161528401, 0.0605228841, 0.0070158611, 0.0013904547, -0.0349075347, -0.0476871617, -0.0183815975, -0.0485382937, -0.0175054278, -0.0275310669, 0.0160338301, -0.1523711383, 0.0465728156, -0.0471500456, -0.1111996025, -0.0264830571, -0.0834815651, -0.1139827445, 0.0816988125, -0.0349909551, 0.0717235282, 0.0748269334, -0.1375314891, -0.1365921795, 0.0513827056, -0.0490549915, 0.0734263137, 0.0746053979, 0.0339331962, -0.0737039596, -0.1166908666, -0.1088744178, 0.0895572454, -0.1142126918, 0.0728054419, 0.0216909833, -0.0699790269, -0.0222485960, -0.0304712057, -0.0692327768, -0.1143250093, -0.0391646959, 0.0585703515, 0.0046630683, 0.0065823328, -0.0082338629, -0.1036532447, -0.0463830046, 0.0378521830, 0.0937281996, 0.0433634408, -0.0414831564, 0.0397764929, -0.0266827513, 0.0423625149, 0.0103145270, 0.0594205372, 0.0081253648, -0.0827315226, -0.0065985671, -0.0442753881, -0.1101039872, -0.0489080474, 0.0582740009, 0.1399181187, 0.0838027745, -0.0221619215, -0.0920394212, 0.0973846018, 0.0613612086, -0.0112792756, 0.0049318648, -0.0128768664, 0.0543551333, -0.0435062200, 0.0274587851, -0.1308441758, -0.1194760725, -0.1216671839, -0.0070474674, 0.0209522787, 0.0317134038, -0.0862325281, 0.1332249790, 0.0709347352, -0.0509922542, 0.0464797579, -0.0332748890, -0.1016279906, 0.0537620820, -0.0453238897, -0.0646324754, 0.1331674904, 0.0108620208, 0.1155481488, -0.0259628017, 0.0956397057, -0.0997569934, -0.0433806293, 0.1494588107, 0.0344151147, 0.0973542258, -0.0582557619, -0.0949869379, 0.0621075518, -0.0160756037, 0.1274812520, -0.0123770498, 0.0522621423, 0.0683673695, 0.0879773572, -0.0331892222, 0.0320771448, -0.0519136749, 0.0800979212, -0.0401131660, 0.0473145507, -0.0478463024, -0.0441484638, 0.0600656085, 0.1675181240, -0.1247851923, 0.0757617950, -0.0525913797, 0.0431515686, 0.0282469336, -0.0389122851, -0.0756156519, 0.1030776724, 0.0362588279, -0.0121272299, -0.0352152959, 0.1114546880, -0.0904335231, 0.0496051833, 0.0823331624, -0.0946652293, -0.0714806989, -0.0641474277, -0.1289655119, 0.0698454008, -0.0296850968, -0.0824313909, -0.0342678018, 0.1069865003, -0.0609139465, 0.0676931813, 0.0702278465, -0.0570327528, 0.1612713188, 0.0509158894, -0.0523363836, 0.0473999009, -0.0292180255, -0.1157823950, -0.0209625792, 0.0021258884, 0.0318752229, -0.1174376234, -0.0636679381, 0.0706993267, 0.0705389380, 0.1215488687, -0.0362156928, 0.0636071488, 0.0699912906, 0.0218774043, 0.1343038529, -0.0815270096, 0.0043186289, -0.0104155503, -0.1203448027, 0.0922379494, -0.1267162263, -0.1281915903, -0.0369373225, 0.0108350739, 0.1372863352, -0.0082590003, 0.1531817466, -0.0405755676, -0.0582377613, 0.1139338464, -0.0631282628, -0.2217434496, 0.2243132144, -0.0526315011, 0.0395207591, -0.0008270204, -0.0473719761, 0.0421561971, 0.0030666483, 0.1787463576, -0.1032608896, 0.0458572842, 0.0591362789, -0.1197462156, -0.0057750745, 0.1198375672, 0.0997161865, 0.0390729681, -0.0156684797, 0.1759166420, 0.0268353410, -0.1215559691, 0.0719652027, 0.0239118524, -0.0465354249, -0.0509176962, -0.1062106043, 0.0071218484, 0.0838434920, 0.0355535224, -0.2190100104, -0.0306771435, -0.0017318847, 0.0620677844, -0.0508426242, -0.1140390784, 0.0875120386, 0.0527880676, -0.0999963135, 0.1024721414, -0.0547945462, -0.0264233742, -0.0988199264, -0.0376014784, -0.0372930355, -0.0935021564, -0.1175352782, -0.1111868396, 0.0047824276, -0.0937827751, 0.0798376501, -0.0279241428, -0.1002703160, 0.0084650395, -0.0134140216, -0.1090742946, 0.1028928757, -0.0522413515, -0.0125730429, -0.1037979722, 0.0678835809, -0.0709653795, 0.0663165897, 0.0883657634, -0.0969267637, 0.0455040224, 0.0878464133, -0.1014223918, -0.1103188992, 0.0096323006, 0.0495620705, -0.0609340742, -0.0446874686, -0.0266612545, -0.0513740331, -0.0623492226, 0.0344863310, -0.0049648997, -0.0619979985, -0.1061439216, 0.0108279213, 0.0999363661, 0.0996677577, -0.0271494761, -0.1129629239, -0.0934808031, 0.0013921759, 0.0102167157, -0.0381330028, 0.0892741904, 0.1130655706, -0.0671971962, 0.0625895411, 0.0302645322, 0.1355827451, -0.0720493421, -0.1144548282, -0.0453923009, -0.0999393687, 0.0601124689, -0.0938308090, 0.1691503674, 0.0148633160, 0.0027178121, 0.0964640155, 0.1086180285, 0.0443917885, -0.1151389480, 0.0852712765, 0.0365408286, -0.0257846080, 0.0253370926, -0.1015924215, 0.0644280538, -0.0167864989, 0.0716673210, 0.0221136790, -0.0462626889, -0.0659245029, 0.0630278662, 0.0777124092, 0.0032555964, 0.0065011689, 0.0630461946, -0.1064741835, -0.0334464721, 0.0293610338, -0.0261037238, 0.0104344655, -0.0852808356, 0.0675783232, -0.1651529670, 0.0289410073, 0.0140127530, -0.0123318536, 0.0108791180, -0.0105815884, 0.0673120469, -0.1273999065, 0.0899205953, 0.0329346657, 0.0632233769, -0.0550553277, 0.0065450110, -0.0062366729, -0.0153062008, -0.0517279133, 0.0317103565, 0.0517181158, 0.0190681349, -0.1363104135, 0.0837296844, -0.0452484824, -0.1001191810, 0.0141628906, -0.0270292480, -0.0624388307, -0.0681396872, -0.1786774844, 0.0523495749, -0.0364981890, 0.1070880443, -0.0139628947, 0.0663938895, 0.0605383553, 0.1328245401, 0.0798973292, -0.1045554131, 0.0061395806, -0.0260705911, 0.0136822304, 0.0976091996, 0.0938434526, -0.0218943767, 0.0318990685, -0.0613256916, 0.0799047947, 0.0120552657, -0.0939364135, 0.0227957536, 0.0760238916, 0.0463657416, -0.0268886872, -0.0882815421, -0.0610253066, 0.0554996878, 0.1268476099, 0.0030154914, -0.0326770805, 0.0949153528, 0.1040152982, 0.0808413327, -0.0744387880, -0.1142693460, 0.1174591929, 0.0274710879, -0.1280208528, -0.0744652674, -0.0566454120, 0.0096965879, 0.1064551547, 0.1145312041, -0.0560813211, -0.0370877981, 0.1025879160, 0.0439195894, 0.1173442900, 0.1305648535, -0.1030010730, -0.0227268767, -0.0582230799, 0.0205899179, -0.1361336559, 0.0111398734, -0.0662535205, 0.0092667602, -0.0204884540, 0.0723605752, -0.1077122167, 0.0647354797, -0.0785204172, -0.0913538262, 0.0689770803, 0.0317342542, -0.0674322173, -0.0087780999, 0.0054831784, 0.0071867201, 0.0676510110, 0.1351605654, 0.0026062818, -0.0052310214, -0.0790615007, 0.0198659264, -0.1228113472, -0.0889319927, 0.0273667108, 0.0680725798, 0.0895676985, -0.0799834132, 0.0521263406, -0.1636445373, -0.0505065843, 0.0444218032, -0.0824640766, 0.0474348813, -0.1296150237, -0.0464249849, -0.0018787185, 0.0782680959, -0.0789736435, -0.0021452545, -0.0321267955, -0.0587305799, -0.0558223240, -0.0424018465, -0.0756661519, -0.0348380283, 0.0615908913, 0.0132930661, -0.0272182152, -0.1015488356, -0.0191290490, 0.1348330230, -0.0769567341, 0.0327288359, 0.0161658525, 0.0648424253, 0.1297025979, -0.0934742615, 0.1040128618, -0.0433729365, 0.0761092082, -0.0617089085, 0.0788169801, 0.0138150696, 0.0219142586, -0.0722894669, 0.0929670632, -0.0607442968, 0.0836793929, -0.1214140877, -0.0752371028, -0.0984864086, 0.0773249120, 0.0954252556, -0.1261162311, 0.0546277054, 0.0671199039, 0.0517247692, -0.0697372928, -0.0463136993, 0.1365467310, 0.0868534744, 0.0386803858, 0.0548827164, 0.0477302559, -0.0571311489, -0.0010193400, -0.1436788142, -0.1603897959, -0.0392312668, 0.0031183891, 0.0032135029, 0.0641809478, -0.1148023158, -0.1026426926, -0.1672975272, -0.0294488240, -0.0806578100, -0.0976534486, -0.0018265790, -0.1285065860, -0.1252817214, 0.0692006350, -0.0263945498, -0.0842610449, -0.0509593636, -0.0957968459, 0.0641009584, -0.0948355347, -0.1191240102, 0.1112584546, -0.0180417225, -0.0159052406, -0.0601732917, 0.1122129634, 0.0230821799, 0.0328580998, -0.0013483213, 0.0307954773, 0.0572878942, 0.0216352548, -0.1212923229, -0.0134504158, 0.1315600425, -0.0977297947, -0.0132187232, -0.0717749670, 0.0983703583, -0.1640157551, -0.0339404270, -0.0605647415, -0.0908227861, 0.0801836774, -0.0118009392, 0.0688470900, -0.0090442365, 0.1007185280, -0.0805416629, -0.1722422391, -0.1523433477, 0.0698500872, 0.1211221293, -0.1604244262, -0.1043941751, 0.0703649521, 0.0530443080, 0.1357939988, -0.1115984619, 0.0082600405, 0.0561255254, 0.0406478420, 0.0421740338, -0.1675287038, -0.1756282449, -0.0145686744, -0.0234695226, 0.0065447502, -0.0865819082, -0.0361611657, -0.0750784203, -0.1623221189, 0.1016667932, -0.0615852624, 0.0030924394, -0.0515759625, 0.0638054460, 0.0874016881, 0.0017909355, -0.0001697430, 0.0212846268, -0.1051491722, -0.0472593009, -0.0864774734, -0.1624531150, 0.0731175244, -0.1197051778, 0.1195478961, -0.0909101516, 0.0654083490, 0.0573251657, 0.0424127243, -0.0242700558, -0.1217450127, -0.0250556562, -0.0544413775, 0.0007702411, 0.0808158293, 0.1331313103, 0.0792866647, 0.1290843636, -0.0394594222, 0.0282107666, 0.0351901501, 0.0050478205, -0.0016037475, -0.0784597322, 0.0981045589, -0.0568218715, -0.1370064765, 0.0248596389, 0.0024811891, 0.0559771247, -0.0171738453, 0.0082268910, -0.0374627486, -0.0197227728, 0.0364738852, -0.1102675274, -0.0627681017, 0.0389113724, -0.0593240000, 0.1043466330, 0.0095752999, 0.0379547924, -0.1166921854, -0.0577430762, 0.0740256160, -0.0106410543, -0.1263956875, -0.1045419201, 0.0978586897, -0.1406666785, -0.0890210569, -0.1110263541, -0.0891772807, 0.0373173393, -0.0291534346, -0.0531314462, 0.0268965662, 0.0327516794, 0.1160300225, 0.1016757712, 0.0914834514, -0.0608128905, -0.0534521900, 0.0376353487, -0.0606792606, 0.1328997910, 0.0520415790, -0.0885617062, 0.0736906528, 0.0993608460, -0.0076227724, 0.1089560539, 0.0069817342, 0.1277734786, -0.0444448628, -0.0739736483, -0.0547429658, 0.0625480115, -0.0223032739, -0.0851321146, 0.0886857361, 0.0915838480, -0.0062354077, -0.0006673806, -0.0000620726, -0.0327336714, -0.1199749410, -0.0458156355, 0.0314500853, -0.0782849193, 0.0459779426, 0.1000962406, -0.0201075245, 0.0421013460, 0.0304648168, -0.1074610502, -0.0609702878, -0.0945667773, 0.0030918298, 0.0713994429, -0.1229324117, -0.0490992740, 0.0519918501, 0.1078503504, -0.0378301032, 0.0916433781, 0.0621788055, -0.0649163797, 0.0218860861, -0.0115274359, -0.1262462884, -0.0825642198, -0.0144589022, 0.0229431652, -0.0033971581, 0.1104376763, 0.0149426451, -0.0324963965, 0.0915184841, 0.0680024028, 0.0965986922, 0.0518252626, -0.0526021719, 0.0612408966, -0.0919630751, 0.0029378484, 0.0554716922, -0.0454259254, -0.1361721307, -0.0542811640, 0.0651597381, -0.0557442084, 0.0348761007, 0.0664505437, -0.1160394922, -0.0455883779, 0.0195082147, -0.0823173523, 0.0606557280, -0.0440440923, 0.0060838587, 0.0270524621, -0.0251499545, 0.1001921147, -0.1320497096, 0.1310892403, 0.0284318160, 0.0383240581, -0.0864423886, -0.1067666486, -0.0531713292, 0.0874429718, -0.0403351150, 0.0080479765, -0.0398232266, -0.0310082342, 0.0881442279, -0.0913054645, 0.0610389486, 0.0798164010, 0.0281098336, 0.0145618832, 0.0104850866, 0.0166020319, -0.0798315704, -0.1998916268, -0.0615061894, 0.1210107431, 0.0471318215, -0.0424545333, -0.0031493620, 0.0671773255, 0.0131791122, 0.0566666201, -0.0234842971, -0.0418567471, 0.0932868272, -0.0841696709, 0.0037351763, -0.0195454266, 0.0008910318, -0.1002487689, -0.0658143088, 0.0783842355, -0.0719166696, 0.0241138879, -0.0831226036, 0.0572839268, -0.0942394733, -0.0961428061, -0.0699079782, -0.0602462366, 0.0756229833, 0.0503139906, 0.0485277474, -0.0801963583, -0.0749705732, -0.0751492083, 0.0303265564, 0.0535167977, 0.0539445430, -0.0168704931, -0.1260214448, -0.1106449813, 0.0520310625, -0.0886152163, -0.0647104755, -0.0438686050, -0.0000376839, 0.0343535170, -0.0516582951, 0.0611922666, 0.0486606620, 0.0134192519, 0.1065150797, 0.0774537548, -0.0908989906, 0.1141070426, 0.0432659127, -0.0629261285, 0.0884172171, 0.0237621050, -0.0711661577, -0.0011532473, -0.0162355583, -0.1247241274, 0.0905875713, -0.0917666703, -0.1111747026, 0.1322674900, -0.0260927510, 0.0969339684, -0.0550662652, -0.1330688149, -0.0074312179, -0.0233219303, -0.0016311674, 0.0948240086, 0.0303307921, 0.0025979641, 0.1009886712, -0.0028470531, -0.0886523873, -0.0842104182, 0.0499707311, 0.0478352867, -0.0632798523, -0.0102315135, 0.0292900540, -0.0315930396, 0.0289441440, 0.1100799367, 0.0615750402, 0.0191692635, 0.0639648587, 0.1231031865, -0.2165539712, -0.0565047674, 0.1016138047, 0.1136696711, 0.0180812366, -0.0329420902, 0.0087490939, 0.0280531198, -0.1617324203, 0.1975286901, 0.0361403339, 0.0458702743, 0.1248184070, 0.0207135119, -0.0258921850, 0.1043843850, -0.0154326418, -0.0225522071, 0.0066730459, -0.1417122781, -0.1121609285, 0.0224439166, -0.0851405710, -0.0231460016, 0.0994967595, 0.0691852048, -0.1099366397, 0.1102226377, 0.1629365683, 0.1085583940, 0.0781695470, 0.0086505329, 0.0562456064, 0.0394977853, -0.0290111899, 0.0759797916, 0.0744290650, -0.0586438738, -0.0962783620, 0.0917739347, -0.1166730225, 0.0592752807, -0.0727245212, -0.0065151071, 0.0396153182, 0.0203073267, -0.0249760393, 0.0191455893, 0.0568962432, 0.0321908146, -0.0501857847, 0.1456454396, -0.1002105325, 0.1407292336, 0.0751448497, 0.0854930952, 0.0410628393, 0.0169589370, 0.0894159377, -0.0813362449, 0.0868177414, -0.0219407976, 0.0401150472, 0.0830956548, -0.0922393724, 0.1105060652, -0.0610433109, -0.1143645421, -0.0703802928, 0.0713523105, 0.0041874638, -0.0482418500, -0.0184692498, -0.0249930825, 0.0117959715, -0.0174694285, 0.1006019935, 0.1026898697, -0.0391315520, -0.0218682345, 0.0191580076, 0.1024714336, 0.0930299237, -0.1104933470, 0.0985054895, -0.0514663719, -0.0162736699, 0.0676798522, 0.0380322002, 0.1181352288, 0.0083798636, -0.0640192702, -0.0196304768, -0.1087589785, 0.0089327563, 0.0616489127, -0.0656582937, -0.0516994596, -0.0618042313, 0.0417569242, -0.0358210057, -0.0412964597, 0.0605879724, 0.0503370650, -0.0602799766, -0.0941813812, 0.0678507611, 0.0060033780, 0.0329921283, 0.0154670812, -0.0114532541, 0.0228095185, -0.0372044556, -0.0005371804, 0.0835774392, -0.0896756798, -0.0826749951, 0.0228702817, 0.1013357788, 0.0016653122, -0.0664272457, -0.0261775199, -0.0747256875, -0.1343278289, 0.0010476768, -0.0696950406, 0.0029277795, -0.0549306758, 0.0135128293, 0.0215779692, -0.0343255959, -0.0782309026, -0.1074679419, 0.0829242393, 0.0278571192, 0.1528505683, -0.0056570242, 0.0522149280, -0.0223558396, 0.0059979772, 0.0115275392, 0.0539310612, -0.0875620246, 0.0828155130, 0.1336985379, 0.1307069063, 0.0733079016, -0.0352740735, -0.0868699700, 0.0686296374, 0.1427411288, 0.0540101416, -0.0747660697, 0.0850379393, 0.1585176736, -0.0031557251, -0.0958157405, -0.0206587706, -0.0384232104, -0.0311324261, -0.0812790915, -0.1175631285, 0.0622872524, -0.0821470693, 0.0297673754, 0.0133923693, -0.0315611772, 0.0927287415, -0.1059469804, -0.0349890962, 0.0583709776, -0.0459460616, 0.0763899460, 0.0317087993, 0.0701668486, -0.0296340808, 0.0711435229, -0.1034343466, 0.1180406511, 0.1453491002, 0.0402599052, 0.1616991162, -0.0490620062, -0.0424390286, -0.0076443870, -0.0556828156, 0.0475891009, 0.0398883522, -0.0401624218, 0.0604898334, 0.0548397377, 0.1312709749, -0.1556904167, -0.0874841809, 0.0631771237, 0.0879211277, -0.0330361687, -0.0858385563, 0.0276296120, 0.1073890328, -0.1767711937, 0.1338623166, -0.1218703017, -0.1194113195, 0.1060273275, 0.0332660861, 0.0995076448, 0.0204531867, -0.0718411729, 0.1640999615, 0.0302649848, 0.0881213471, -0.0492823273, -0.0135507146, 0.0338909999, -0.1075595096, 0.0767326802, 0.0179171823, -0.0752577856, 0.1014363468, -0.0339970700, 0.0329811648, -0.0854430497, -0.1059484035, -0.0285673868, -0.0436293930, 0.0380124599, 0.0145649603, 0.0808264166, -0.1611548811, -0.0680664703, 0.1146121621, -0.0611920059, -0.0023354059, -0.0496678613, 0.1193434224, 0.0790400729, 0.1327973008, -0.0139853954, 0.0744638517, 0.0162423421, -0.1139450371, -0.1230691597, 0.0590940230, 0.1184077710, -0.0378295481, 0.0147266360, 0.0764915869, 0.0476294197, -0.0734495223, -0.0902559087, 0.0048221573, 0.0644364730, -0.0496137589, 0.0065586818, -0.0867469907, -0.0888977051, -0.0237402841, -0.0796784312, -0.0366418660, 0.1205682904, 0.0247784834, 0.0840718895, 0.0139359422, -0.0495194457, 0.0540053882, 0.0592176057, -0.0849995688, -0.0024194822, -0.1052620932, -0.0579887517, -0.0280995127, -0.0465322882, -0.0055348920, -0.0816153362, -0.0468452759, 0.0073046656, 0.0661219731, -0.0442701727, -0.0539398640, -0.0260895267, 0.0836144611, -0.0415857248, -0.0575851649, 0.0107573858, -0.0879847929, -0.0458027795, -0.0409045443, -0.0427442491, 0.0459118858, -0.0571309440, -0.0057016443, -0.1036791205, -0.0271622334, -0.0187303424, -0.0059035020, -0.1026785150, -0.0847176239, 0.0410672575, 0.0456787236, 0.0152339032, -0.0114569953, 0.0102182468, 0.0648035333, 0.0452902839, -0.0285104197, 0.1258447021, 0.1207664385, -0.0577700287, -0.0455164239, 0.2118265182, 0.1486164331, -0.0529681817, -0.0483927280, -0.0776829943, 0.0068400642, -0.0096972324, 0.0239458531, -0.1173712462, -0.0758385360, 0.0788238719, 0.1106199548, 0.0356580131, -0.1157576442, 0.1442436576, 0.0521701053, -0.0576729737, -0.0225876104, -0.1034086868, -0.0911296457, -0.0550161526, -0.0617334619, 0.0296318736, 0.0720344633, -0.0542237870, -0.0568592586, -0.0839396790, 0.0449693054, 0.0480559990, 0.0201841891, 0.0502041578, 0.0783619210, 0.1535827667, 0.0139688570, 0.0594312325, -0.0618387461, 0.1096766889, -0.0955700427, -0.0946180820, 0.0162126683, 0.0623015426, -0.0786865577, -0.0906876922, -0.0737602040, 0.0595141873, 0.0389125720, 0.0779752955, -0.1085776910, 0.2233017832, -0.0287587214, -0.0464974865, -0.0954866707, 0.0517477430, -0.0411163270, -0.1156540886, 0.1185609251, -0.0512003265, -0.0060601500, 0.1495884210, -0.0412041880, -0.0303908102, -0.2265984118, -0.0649239272, -0.0662960708, -0.2490976006, -0.1815679967, 0.0317516066, 0.0469936691, -0.0137374643, 0.0930670798, -0.0790927485, -0.1250872612, 0.0747771710, 0.0736152306, 0.0226342492, -0.2097600400, 0.1371646971, 0.0916953534, -0.0168483630, -0.0058029541, -0.0748774707, 0.0274656862, -0.0072337831, 0.1854166985, -0.0811307877, 0.0328452401, -0.0591235384, -0.1128450483, 0.0954217762, 0.3090861440, -0.0248069149, -0.0186754446, -0.1080827266, -0.0575521775, -0.1497915089, -0.0379610844, -0.1454576999, -0.0844361335, -0.0422132052, -0.0654870421, -0.0772678256, 0.1307220906, 0.1302422434, -0.0871701092, -0.1675947756, 0.0731134787, 0.0715799257, 0.0580567867, 0.0297715086, -0.1045784578, -0.0086356010, 0.0420527570, -0.0219149422, -0.0501251034, 0.0850363374, -0.0462213233, 0.0431099385, -0.0319134369, -0.0452033170, 0.0544181988, -0.1165879592, -0.1132069007, 0.0248948056, -0.0264010299, -0.1048104018, 0.1021017358, 0.0170354303, 0.1212605760, -0.1004163325, -0.0319950283, -0.1075043082, 0.0733272657, 0.0067242025, -0.0255536139, -0.0421313196, -0.0602542423, 0.0735013187, 0.0586448833, 0.1408220083, 0.0991510078, 0.0738372803, -0.0935156941, -0.0409250520, 0.0766800418, 0.0298952069, 0.1347735971, -0.1164123490, 0.1003695354, 0.0226659421, 0.0074357097, 0.0660158098, 0.0506143160, 0.0769707933, 0.0905094296, 0.1074380651, 0.0916594043, 0.0933247954, -0.0888042077, 0.0108728912, 0.1146325693, -0.1165064126, 0.0794679523, -0.0262648910, 0.0596211702, 0.0843713805, -0.1224786267, 0.0063013439, -0.1176880747, 0.1218656003, -0.0037764143, 0.0656439885, 0.0510510169, -0.1017450392, 0.0275368728, 0.0004285999, 0.1105119064, 0.1176543608, -0.0859604403, 0.0494379178, -0.0354515463, -0.0151907597, -0.0804231986, 0.0350688212, -0.0863166675, 0.0330412537, 0.1343836486, -0.0651326776, -0.0717892572, 0.0932440683, 0.1491042972, -0.0543215796, 0.0410725325, 0.1327153444, 0.1148401350, 0.0910320058, 0.0130532002, -0.0755492970, -0.1264643520, 0.0546447672, -0.0862794667, 0.0445675552, 0.0143111497, 0.1198299155, 0.1485137939, 0.0349054523, -0.1112772077, 0.0881426558, -0.1047130749, 0.0432133786, 0.0594686940, -0.1106020957, -0.1775692403, 0.0668487996, 0.0414961614, 0.0120516475, 0.1382883042, -0.0904566720, -0.1026100591, -0.1065536067, 0.0577695183, 0.0966689959, 0.0234367568, 0.1179668456, 0.1197076142, -0.0739341304, -0.0822855160, -0.0624888204, 0.0055925706, 0.0523549132, 0.0104412474, -0.2050889134, 0.0166626628, 0.0410476252, -0.1417975128, -0.1748142689, 0.0095254285, -0.0342855975, -0.0964954570, -0.0703650042, -0.1186185107, -0.1168173403, -0.0864038318, -0.0174417365, 0.0920886174, -0.0692913234, -0.0054549468, 0.0771920234, 0.0958609730, 0.0235922821, -0.0831633061, 0.0171081331, 0.0866492093, -0.0607675165, 0.0090090847, 0.0799181536, -0.0425944813, 0.0166258030, 0.0260169040, -0.1213157997, -0.0303240586, -0.0497639291, -0.0368611477, 0.0235898104, 0.0946872681, 0.0044556819, 0.0313840173, 0.0398683771, -0.0769705102, 0.1223392263, 